<?xml version="1.0"?>
<opencv_storage>
<opencv_ml_ann_mlp>
  <format>3</format>
  <layer_sizes>
    15 100 100 10</layer_sizes>
  <activation_function>SIGMOID_SYM</activation_function>
  <f_param1>6.6666666666666663e-01</f_param1>
  <f_param2>1.7159000000000000e+00</f_param2>
  <min_val>-9.4999999999999996e-01</min_val>
  <max_val>9.4999999999999996e-01</max_val>
  <min_val1>-9.7999999999999998e-01</min_val1>
  <max_val1>9.7999999999999998e-01</max_val1>
  <training_params>
    <train_method>BACKPROP</train_method>
    <dw_scale>1.0000000000000000e-03</dw_scale>
    <moment_scale>0.</moment_scale>
    <term_criteria>
      <iterations>800</iterations></term_criteria></training_params>
  <input_scale>
    4.2841674813535819e+00 -2.8730906031384107e+00
    9.6094567743444621e+00 -2.6149204765479293e+00
    8.7764662240719762e+00 -2.2640979991068271e+00
    8.8395022970495045e+00 -2.0660153948827649e+00
    8.2444784849548878e+00 -1.1782511690179245e+00
    1.8505037318680543e+01 -1.5221336772501453e+00
    3.3727426894961241e+01 -1.8882632664928103e+00
    4.1761296101210718e+01 -1.8438860923465077e+00
    5.7022136508194485e+01 -2.0460568280177251e+00
    6.2184046761749727e+01 -1.8935299704534563e+00
    7.3834772616327228e+01 -2.0760426852154592e+00
    7.6843429201770689e+01 -1.8869199234406222e+00
    7.6272795024730968e+01 -1.8230558281157996e+00
    1.1063070586798865e+02 -2.2101821998916389e+00
    9.2969571451353559e+01 -1.7295214920036848e+00</input_scale>
  <output_scale>
    5.2631578947368418e-01 4.9999999999999994e-01 5.2631578947368418e-01
    4.9999999999999994e-01 5.2631578947368418e-01 4.9999999999999994e-01
    5.2631578947368418e-01 4.9999999999999994e-01 5.2631578947368418e-01
    4.9999999999999994e-01 5.2631578947368418e-01 4.9999999999999994e-01
    5.2631578947368418e-01 4.9999999999999994e-01 5.2631578947368418e-01
    4.9999999999999994e-01 5.2631578947368418e-01 4.9999999999999994e-01
    5.2631578947368418e-01 4.9999999999999994e-01</output_scale>
  <inv_output_scale>
    1.8999999999999999e+00 -9.4999999999999996e-01
    1.8999999999999999e+00 -9.4999999999999996e-01
    1.8999999999999999e+00 -9.4999999999999996e-01
    1.8999999999999999e+00 -9.4999999999999996e-01
    1.8999999999999999e+00 -9.4999999999999996e-01
    1.8999999999999999e+00 -9.4999999999999996e-01
    1.8999999999999999e+00 -9.4999999999999996e-01
    1.8999999999999999e+00 -9.4999999999999996e-01
    1.8999999999999999e+00 -9.4999999999999996e-01
    1.8999999999999999e+00 -9.4999999999999996e-01</inv_output_scale>
  <weights>
    <_>
      -6.6893040697512096e-01 -2.2723287342416726e-01
      5.6361276500558905e-03 -3.2560515140163393e-02
      -1.5285008890080981e-01 -2.8415845848179422e-01
      9.9384149527740939e-01 -1.2233412957789595e-01
      7.0604006022385446e-01 1.9716567752399580e-01
      -2.1580796259884030e-01 1.2973604198263278e-01
      -7.4198956942253436e-01 -6.0877813828521220e-02
      -3.6790595750178789e-02 -1.8043120283138050e-01
      -1.2990486846777691e-01 -5.3335685448097400e-02
      3.3997322058163658e-02 3.5253100552206346e-02
      -4.9214266267762249e-02 2.1748325719243417e-01
      3.8780726051456806e-02 2.1920429103764083e-01
      -2.9720210464966795e-01 1.3346146321489963e-02
      2.3613104236455754e-01 -1.8150423303575491e-01
      -4.3643294330966816e-02 -1.0708958419067681e-01
      -1.3390484682532837e+00 1.5277183400341027e-01
      1.2046709034994958e-03 3.0519117074287283e-01
      -7.6570939054701345e-02 5.9032893328970111e-03
      1.3569080924853105e-01 1.1955737558746578e-01
      -1.4578802254521858e-01 -6.9266187459602779e-02
      -5.5719489260749065e-02 -3.3467187331157860e-01
      5.9479315665460761e-02 -6.4679383835653093e-01
      -8.7983487339451764e-03 2.8677326414478749e-01
      1.6611062252178088e-01 1.6423505633341967e-01
      2.4516765209952157e-01 2.3116506950348875e-01
      2.0626473995259645e-01 1.7767635148028976e-01
      -5.6063620790358470e-01 1.7240779020830169e-01
      -1.2974677625520556e-01 -1.1000350770014584e-01
      2.8989774942884927e-01 -2.7198838746949050e-01
      -3.0662296819234397e-01 -3.2549599649643803e-02
      7.8963806721352156e-02 -5.5676644037476075e-01
      -3.9105577854075824e-01 2.1191582832055414e-01
      1.8504381037938131e-01 1.4519993255024524e-01
      -2.2177038218440331e-01 4.5720012867336213e-01
      4.9849706262928166e-02 1.8468770981860494e-01
      4.4364807301509729e-01 6.3643145810748730e-02
      7.0080395810100810e-02 -4.9638691021042303e-01
      -1.3061968810531260e-01 -2.8001985004286106e-01
      -1.3038742253594174e-02 3.1437937929649673e-01
      1.0589548771720106e-01 -1.1907896930269009e-01
      1.1226421632873552e-01 -2.7521946668065295e-01
      3.1765810452121129e-01 1.2853738523690200e-01
      5.0672349661037300e-02 1.2805818471394562e-01
      8.7757382906278686e-02 2.1956384196540982e-01
      1.8190967213038328e-01 -1.4952812802433946e-01
      1.2897156285865230e-01 1.1738280875379078e-01
      -1.9566888424246281e-01 2.2328512378875989e-01
      7.5001238072251189e-02 -1.0655247180902630e-01
      -2.1944072522838379e-01 5.9883237459783600e-01
      -2.3654150649479819e-01 2.0469237581114696e-01
      9.8168524612872454e-02 -2.1285477026519389e-01
      1.9702109404459930e-01 8.3700364933858046e-02
      -3.8012637341597488e-01 -1.7754025405611099e-01
      5.4089432504998169e-01 1.2449610102907022e-01
      8.1778731205490951e-01 -1.0614327970771531e-01
      1.1816358137108175e-01 -2.3398074909372776e-01
      -9.0180269819936076e-01 3.8975794217661688e-02
      2.3567732801326774e-01 -1.7926045368762097e-01
      1.7329634749062548e-02 -1.8982658528710272e-01
      -7.5842302335531631e-02 -9.5711732564407778e-02
      8.9402569043662131e-02 3.4453792412663498e-01
      -1.3725089068989700e-02 -6.2266168609982617e-02
      -5.6560935628987973e-02 4.8556176102327719e-01
      -1.0659943277377548e-01 -2.9501779618531587e-01
      4.6121168667831433e-02 -1.1461723562984365e-01
      4.6709620228894738e-01 3.9567672248023052e-02
      -1.6275584118689865e-01 -1.4335650346082651e-01
      1.5673904384539430e-02 8.5480957960550677e-03
      -1.3833859693602590e-01 1.7014985820723874e-02
      2.0137700019982221e-01 -7.6837373227095523e-02
      7.8945529583570331e-02 5.1131399025736997e-02
      8.0985525473986533e-02 1.8129887360590080e-01
      -7.8538514950809116e-02 2.5146532126167614e-01
      1.9842502431179429e-01 2.0614487413815056e-02
      1.2021531715280590e-01 2.3516682931983954e-01
      -1.8264474711262516e-01 3.2568623083849796e-01
      -4.5473535964053752e-01 -1.9432146454429158e-01
      -2.5095388514819333e-01 -3.9059485352451892e-02
      -4.6261712469488497e-01 1.3820646764032946e-01
      1.9969488379012601e-01 2.0481372995892358e-01
      6.4681083474364257e-02 4.0945073902077317e-01
      -1.6970444539022408e-01 -1.2324733629605446e-01
      -9.4698054562942655e-02 2.6870009405461120e-01
      2.9965151721491506e-01 6.5924202913224894e-01
      2.9037667478298699e-02 4.9507575616994724e-02
      6.7278833561514806e-01 1.4052512643753007e-01
      2.2297115809723750e-01 -4.6167960436346139e-01
      8.3159715956083319e-02 7.8939025104656821e-02
      2.0128519575227563e-01 3.1522175577058703e-01
      5.1578353876246255e-03 1.4987911796164746e-01
      -8.9253318256279510e-02 -2.0307689314932534e-01
      6.2465444686713369e-02 -1.0218351908490104e-01
      -6.8247679925519736e-02 -2.6391104145944150e-01
      4.9844501498864224e-03 8.8114908531699038e-02
      -5.1405538581741982e-02 -1.9498596330844939e-01
      -3.8953093920513382e-02 5.3936769428367531e-02
      1.7676486351198410e-04 -1.5172556747468263e-01
      1.3684584751661408e-01 1.5352272732837511e-02
      6.6972886039178670e-02 6.0205503449337894e-01
      -1.4644722894296827e-01 2.8345773251366402e-01
      -2.5511552375628493e-01 -1.4806553774197020e-01
      8.5305812452472846e-02 -7.4882422501004076e-02
      -9.8226842966821229e-02 -1.1781189072047125e-01
      7.7098566018467596e-01 7.9994547261332399e-02
      8.6917753030583933e-01 -1.0857296711094286e-01
      -3.1799127070258426e-01 -9.5564344646262858e-02
      9.4326480159568085e-02 -4.3331894752888775e-02
      -2.2614097506261930e-03 -5.9054757974650708e-03
      -1.0926392143684460e-01 7.2351790132221760e-02
      -5.7358975666177613e-02 1.0082364227847351e-01
      2.6048492178526056e-01 3.2601313770566348e-01
      1.6402733169452016e-01 -1.2446210799554412e-01
      1.9881197255688587e-01 5.8295344134310978e-01
      1.1889633377659888e-01 8.1731796759366176e-02
      2.1048825536812540e-01 2.5726086488039951e-02
      6.0520892366805268e-01 2.7638157260174612e-01
      -1.2292851515764985e-01 -5.1049312802925473e-01
      -8.0712649790612531e-02 -9.0351185516772611e-03
      -1.3746214644955644e-02 2.6353394590642221e-01
      -2.2664594318421377e-01 -2.1058216140776323e-01
      -1.7074866257896928e-01 9.4229769956978515e-02
      -1.9482384470020805e-01 4.8553058438432983e-01
      6.4560872531926716e-02 9.1889686366664960e-02
      -1.0018337143984879e-01 1.9588767201266710e-01
      -6.3617851063831582e-02 -1.4818740331291155e-01
      7.3308032695910949e-02 -2.7228339078241365e-02
      -7.7680157482460754e-01 1.6697212520071239e-02
      -1.2435195804111443e-01 1.6705120871358883e-01
      -5.1722756485782262e-01 8.4880534215125841e-02
      3.0282860654831106e-01 -1.0315063574153224e-01
      -1.8167007196146029e-01 2.5226759004336152e-01
      3.8554341808028421e-02 1.1631592839578196e-01
      2.8726926848394629e-02 2.7285024452040972e-02
      -9.1344066447059169e-02 6.5813630926486244e-01
      1.9623321862162221e-01 2.8406859761299641e-01
      1.0645660689565062e+00 -1.8439023217670195e-01
      -3.8118001736346052e-02 -1.1321286103011274e-01
      1.1849093681268366e-01 1.4897466629246578e-01
      -4.3947277686287256e-01 4.6106831387531366e-01
      2.8671483329745034e-01 -1.4434073656990434e-01
      -6.8423852102846822e-02 -1.2053819770331217e-01
      -2.9098137616529030e-01 -1.0809116825952625e-01
      -1.2628149880979606e-01 5.6005615240546827e-02
      1.4016328936590824e-02 2.0799226791163619e-01
      1.4232452010156066e-01 -3.9658978862624719e-02
      3.8891485343972376e-01 5.5734429406646843e-02
      -6.3777858640701552e-03 1.3930031664140333e-01
      -2.3268901189761288e-02 4.8695232657942136e-02
      1.3483838111432924e-03 -5.8148494413213092e-01
      4.3029063028992615e-01 1.8288693093048825e-01
      -5.1056252898632248e-01 -1.3722271079265591e-01
      -6.1469054075434834e-02 6.3877802806969974e-02
      -7.3651525202849244e-01 -1.4374882020648910e-01
      1.2053772675223815e+00 -1.8147649797451343e-02
      6.6793730749609026e-01 1.9320768078074346e-01
      -4.2965455882543614e-02 8.7489605461334788e-02
      5.8411714199124909e-01 -3.2524254771906042e-02
      -1.4210294444944621e-01 -2.6948106258164117e-01
      9.3083994821743204e-02 -1.2403641980330678e-01
      2.1642390870446004e-01 9.2368796326747840e-02
      2.1774795072595196e-01 -1.2521698105821277e-01
      2.3381024027258540e-01 2.4102443784914593e-01
      -1.0656979336822651e-01 6.9654428381644040e-02
      -1.1029373673017016e-01 9.3140952294740204e-02
      -7.3184444765192258e-02 -1.7420067011650352e-02
      -5.2943460652765428e-01 -4.5774303975961198e-04
      -8.6893318810186929e-02 2.2064054998190616e-01
      -2.2464585616820557e-01 5.5456975944102406e-02
      1.3512421193914903e-01 -1.1684666545740244e-01
      -1.1824290932383096e-01 1.2040193291336274e-01
      8.9088734788169602e-02 -2.4589790297500685e-01
      1.5529867914155387e-01 -6.4480304527518251e-01
      1.5553647547883959e-01 2.0837942313248500e-01
      2.6718374125698147e-01 -2.4038616990857095e-01
      1.7040466978222765e-01 6.6023873361491833e-02
      -3.5956812275949421e-02 2.0142625429096172e-03
      -2.4359137235986517e-01 2.0982199870862051e-01
      -1.8002493639660267e-02 -1.2951971008996262e-02
      4.8618865923489557e-01 -1.7304516631992709e-01
      -6.7415012132429036e-02 -7.2313819899963536e-02
      3.5101030732055194e-01 -3.4794887895145216e-01
      -5.4390515723798816e-01 9.1082651397839706e-02
      1.9725939457159827e-01 2.5104174209727520e-01
      -2.4569911209746560e-02 -5.8904681273335902e-01
      1.3557451175092092e-01 -1.9176624922407477e-02
      3.7199006795824513e-01 2.2033617600682530e-02
      1.8333254530547674e-01 -4.7213211947126071e-01
      -8.7399350723455088e-02 2.9009251358280568e-02
      -3.4005347627539961e-01 -1.6239974987472841e-01
      -1.1511002795751452e-01 3.4862015369264721e-01
      -9.3024592570146419e-02 1.0236797754546091e-01
      -1.7190903399114546e-01 -3.1035844643894983e-01
      1.1749676121416033e-01 1.4650101700543065e-02
      -1.5837894271440831e-01 1.8311771701324062e-01
      8.0394065437449438e-02 -1.7663118501445310e-01
      -3.0389840525883019e-02 1.1437454664803541e-01
      1.2001934112287478e-02 2.6258636526039002e-02
      1.3308346650592293e-01 1.1220235985436852e-01
      -1.6439411286064196e-01 1.7079162984167731e-01
      1.4036033870521466e-03 8.3046773255966627e-02
      -3.1528864821424546e-01 -1.8023392315958717e-02
      3.3839246226217798e-02 -7.1171968941958708e-02
      4.9715475482396722e-02 -2.3365462629269326e-01
      1.0157161161161465e+00 1.0999026675548176e-01
      6.6394198748692712e-01 7.4932563122901655e-02
      -5.9562511188007546e-02 2.1899022335547172e-01
      -2.5918099427385932e-01 1.4046342437448572e-01
      1.7177770722661152e-02 -2.4755293485172281e-01
      2.0777228902453340e-01 1.8109285350900825e-01
      3.5150670764237370e-02 -1.6704143235636115e-03
      -5.7443601414203105e-01 1.3536695855225581e-01
      -1.6181372564656379e-01 1.2732214678093570e-01
      -1.2840199314813827e-01 -5.0800633152402824e-02
      -3.1281455783666573e-01 9.3835135929308436e-02
      1.0429835963218949e-01 -2.6478834285198671e-01
      -1.7103104697092225e-01 -1.6727780864755185e-02
      -2.1760227153888514e-01 5.9093401118756628e-01
      -2.2137457812894815e-01 2.0178636743297848e-01
      1.5642862024764320e-01 2.1775532851453130e-01
      2.9059859615156131e-01 2.6331170006988186e-01
      1.5137636752114231e-01 -1.8500276946434868e-01
      1.8264552722773678e-01 -2.6274441914784769e-01
      -2.2000988641518480e-02 4.3209330241656707e-01
      1.9600580836998713e-01 -1.5130030376789561e-01
      6.2425241425966498e-02 -2.4662070638363082e-01
      2.1626917090439671e-01 -1.3717598601736131e-01
      -2.9614803462459027e-01 2.6514175861747053e-02
      -2.1922268441085124e-01 1.1244317951897413e-01
      1.3482076491642911e-01 2.8868042289444951e-01
      -2.4886876602419369e-01 1.8061562507066847e-01
      3.4113251038906361e-01 -2.0640637362993833e-02
      -2.9721588454534037e-01 -8.9916880540691774e-02
      2.6217872234822065e-01 -1.2271789917992116e-02
      6.5107615922223389e-02 6.9212579062768204e-02
      1.3555367847263108e-01 -2.4160663169101743e-01
      1.0010833576937452e+00 -8.6490033159054638e-02
      2.4884213319978721e-01 -1.4346863375721358e-01
      2.8186747732671447e-01 1.3330747322161549e-01
      2.3241163238859394e-01 4.4428197185981427e-02
      -7.8808944048866431e-02 2.2670867380455068e-01
      4.9029750429785128e-02 -4.2143655966011878e-01
      3.4078998301202351e-01 2.5097390701566408e-01
      -2.4552930063787806e-01 -1.3262172750426413e-01
      -5.9016278771650083e-02 -3.5310634460034997e-02
      7.1269487331301435e-03 -9.4177281088116835e-02
      1.2148769674983597e+00 -1.8422404000672629e-01
      -1.8366381837960871e-01 1.0973146688158714e-02
      -2.1151574135098200e-01 2.8759501639608092e-02
      1.9727173313060425e-02 3.5586566657929497e-01
      -1.3286886391269412e-01 1.5233167842519266e-01
      -9.8884939230368007e-02 -1.7497032211577485e-01
      1.3045090616494034e-01 -4.2364275204242472e-03
      -5.3012745842913755e-01 -1.7504061996496872e-01
      2.0952693198424094e-01 7.8407524505060902e-02
      5.2166689061307780e-01 1.7882066312476536e-01
      9.6603843384505273e-03 9.2872441910164926e-03
      -2.5040726869110413e-01 -8.2280085141054546e-02
      -1.2034458598517418e-01 8.6786873452996596e-03
      8.4480022775879154e-02 1.4945397240647573e-01
      -8.3276068164621866e-02 2.0432522047933763e-01
      -6.6846876649312081e-01 2.7735275156504002e-01
      -6.6543004377276421e-02 3.5988362832128418e-01
      -3.8409704677265545e-02 2.4711433522409845e-01
      -2.3303100240113728e-01 -2.1184324105356347e-01
      -7.1004005629144051e-02 -1.5101701272105178e-01
      -1.9982340607415380e-01 -1.2684180302790934e-01
      5.0588309996353756e-03 2.3833226806233457e-01
      -1.8020723453448026e-01 1.8552865666892177e-01
      -2.9286790802072613e-02 -4.1731362026158547e-03
      1.5155580668258894e-01 6.8529908384564270e-02
      -4.9236535666317735e-02 5.5971165487091711e-02
      2.5120814793806329e-01 -2.2550947638885165e-02
      -9.8927986300932150e-02 1.5650321002552384e-01
      3.6000969013141870e-01 -1.3260880107955789e-01
      1.9563518568202948e-01 9.8029062065434935e-02
      -6.8118239397038330e-02 4.4470552494437945e-02
      -4.8352509911251612e-01 -6.7665302134552865e-02
      -1.5823901411987149e-01 -1.4826193461561488e-01
      3.4801507151956812e-01 1.0095343039284360e-01
      -2.6684709903099901e-01 9.5965066136605104e-02
      6.2413383064476496e-02 2.1896663744395428e-01
      -3.1058245475973656e-01 3.4524145710322605e-02
      -4.5770245248946385e-02 3.3140808075447764e-01
      3.5126317615245345e-02 2.5373727166381449e-01
      1.0111883486887964e-01 -7.9802670410202808e-02
      3.3567646855351441e-01 2.6225013133939407e-01
      2.0687022256982435e-01 -4.1367138964353356e-01
      -8.3817902743329800e-02 -5.6494986186275638e-02
      -2.5838175281917691e-01 2.3198769207165973e-01
      -2.0329283854931091e-01 2.8104613979937637e-01
      -1.3343277021057495e-01 -6.7866142251382666e-01
      4.2189317515118196e-01 2.4565783118628717e-01
      2.8151799845367573e-02 -2.4172010755813517e-01
      -1.6062654790080411e-01 1.6482967664937345e-01
      1.1922217986416360e-01 -2.6103142663462298e-01
      6.5534295130970399e-01 -1.3313512326518917e-01
      1.2520875299899623e-01 1.3771984357873510e-01
      -1.5121699268554839e-01 -4.4538359171932530e-02
      -1.3608205106543017e-01 1.0842615461366085e+00
      -2.8847710974759250e-01 1.2536379919766617e-02
      8.0595263676684365e-03 -1.2159306256440154e-01
      1.3425547983433295e-01 -2.7402510014167264e-01
      -3.8047017643232645e-01 3.6581273516055265e-02
      7.0135687477520803e-01 -1.2214591664352456e-01
      1.7740252536470158e+00 1.9487535179743051e-01
      2.0353314212955009e-02 1.4430042589887146e-01
      -1.7233132828601658e-01 -1.7127434186280974e-01
      -2.4781085437967615e-01 -1.3218104370091774e-01
      -5.6927059036182455e-02 2.5088584030801352e-02
      -3.9962828768639054e-02 1.8786550672583729e-01
      -1.0170765595912010e-01 3.8266432166657022e-01
      -7.6572251483029444e-02 7.9824060157835650e-02
      1.1285923427798852e-01 -1.7713783617449316e-01
      8.1481889760142034e-02 -1.7205427680406102e-02
      -6.0071550213497617e-02 -1.8321458882280137e-01
      -4.4624345175585700e-01 2.3491977910909439e-02
      -1.0197109615235107e-01 1.0226180515769026e-01
      1.3235383954813479e-01 1.7517214992919489e-01
      -6.3641447346542215e-02 -2.0957108836800388e-02
      8.7870527934335599e-02 2.7559105594812139e-01
      9.1236479699358608e-02 7.1364116820054529e-02
      1.3308010506832274e-01 -7.3457668425296185e-01
      7.4125992072716501e-02 3.9725509988818658e-02
      8.1019273685106016e-02 -1.5761129694558046e-01
      -8.3401218982463693e-02 -5.2019309986098723e-02
      1.2121432087879844e-01 -1.2889851008926367e-01
      -7.8270658387828063e-01 -1.3355760070847839e-01
      -1.9246416165364760e-04 1.0528538800277779e-01
      2.4541996070861299e-01 1.7199846204781824e-01
      -1.1411398242856358e-01 2.2257398683653293e-01
      2.8670784795700432e-01 -2.1602801914987924e-01
      -2.2807514330440715e-01 1.4323153407340683e-01
      -4.4970920670024707e-03 2.7530402066999515e-01
      -3.6936941651311422e-02 -6.7493871807100161e-02
      2.1749794609338718e-01 -1.8189148141473092e-02
      -4.8839281338737564e-02 1.8939366234755534e-01
      2.5321524149175179e-01 8.9307302999144841e-02
      1.9108773790312489e-01 -1.5675841046717334e-02
      5.6978356238087294e-02 3.0865136859801917e-01
      -2.1259154528934313e-01 2.1942852484526776e-01
      4.4092825350516014e-02 -4.3478458568690154e-01
      9.9485402053034702e-02 -9.7611045880980171e-02
      1.0289554163993517e-01 -1.4029131897144323e-01
      -1.6002708416952630e-01 -6.1399105909776708e-02
      1.4516988081563767e-01 -1.5137800841682555e-01
      5.4936328390249167e-01 -2.0379094392940656e-02
      1.2767758663981110e-01 2.2190560562389560e-02
      6.9315704239771656e-03 -2.6632508990265227e-02
      7.9519131531207821e-02 1.6045979373188810e-01
      -5.2066788418735421e-01 -1.8553795862073894e-01
      7.4808913198266144e-02 -2.2603055356952251e-01
      1.0813959391404966e-01 -1.3504236555044397e-01
      -6.3406006593726461e-01 -7.9607498978136251e-02
      5.0008070083583611e-01 -3.6436201352531290e-02
      8.5621827631910286e-01 2.0967961084117046e-01
      -2.7835923942774069e-02 3.2400121750527339e-02
      8.6914025455573940e-01 2.2077572997604307e-03
      8.5993451328927412e-02 3.8668971563844581e-03
      -9.8581016560421078e-02 5.7596583876026390e-02
      3.2568374496969160e-01 1.1078507200109537e-01
      6.1930872941969528e-02 2.7222567306120649e-01
      -8.3106931001905426e-03 8.1070125365299478e-02
      -1.2897446278581159e-01 2.3403217447866090e-01
      6.9723817443008707e-02 -8.3646195679722160e-02
      1.9778786753612040e-01 1.2091479635187511e-02
      -5.9373982055361274e-01 -1.8746135567252079e-02
      -7.9707470071239461e-02 -9.3914148539455650e-02
      6.6628938630186110e-02 9.6035897207874272e-03
      2.5216356238952638e-02 5.8964903507566693e-03
      -2.1911185811845560e-01 9.1514584877944588e-02
      -1.6786484460588824e-01 9.1563397856848791e-02
      7.9553040576583453e-02 6.7947573233133246e-02
      1.0575843838517626e-01 -1.9156155300670627e-01
      2.5382810798954842e-02 -2.3736428099464718e-01
      -1.8390986042723632e-02 -9.3795862219719327e-03
      -4.9031807381135512e-01 5.5772672427176609e-02
      -2.5245896383923250e-01 1.8201370595547756e-01
      -2.1324058811687793e-01 1.1409330218627728e-01
      4.3619589800154568e-01 -8.9437024309327803e-03
      2.6142438950887269e-02 7.2720725302835104e-02
      2.1608357934944317e-01 1.7655507121428392e-02
      9.7071472822536115e-02 -5.6403007403773082e-02
      1.0701097395628993e-01 2.1473504845901875e-01
      -3.0435367854739664e-01 4.0386760177517089e-01
      2.3516180682698537e-01 1.9107369566136859e-01
      1.1824854878853381e+00 -1.8715294250917103e-02
      -4.0960072437673453e-02 -4.5391748348358386e-02
      -4.5017012453398536e-02 4.8565892283005179e-03
      -1.0258169441672156e+00 4.3214692193443244e-01
      -1.0014020426666988e-01 6.7249708189787372e-02
      2.4134205479201964e-01 -2.1012689113555705e-01
      -1.7830262182596569e-02 -6.6689843616396766e-02
      8.9542945524710579e-02 5.8418692201119948e-02
      -1.9693220188370348e-02 3.4393020468338101e-02
      4.1518685791196240e-02 -1.6104633291983714e-01
      4.3292463744719928e-01 2.1846980499997873e-01
      -2.8065964976951661e-02 -9.5720000848253925e-02
      1.4702520872499913e-01 1.5632269561860124e-01
      1.1297191123758693e-01 -2.7221347719034426e-02
      -3.2141217834804214e-01 3.7437983043753892e-01
      -4.2222585620398356e-01 5.2636539808613450e-02
      -7.4625450432711835e-02 -2.0369363778328353e-01
      -1.4800430180011911e-01 -1.2012168904500387e-01
      3.2188900134906517e-01 6.8335141998270982e-02
      7.3532546095446538e-01 5.7649614215744868e-02
      -1.2584547887747827e-01 7.7354697777566983e-02
      -1.0603200088215836e-01 -2.1170855881246431e-01
      -9.9292974717147139e-02 5.4839688180663921e-03
      -1.0312036844424981e-01 -1.3523615235664210e-01
      3.8946814401738236e-02 2.4209195884721599e-01
      -2.4034907354213181e-01 9.1535933666780367e-02
      6.4567329626536343e-02 1.0459918401304986e-01
      -2.3870992058033427e-01 6.4369491907326604e-02
      2.3848088676672926e-03 -6.5988133185515135e-02
      1.4822984667543504e-01 -1.3493191716134598e-02
      -3.8702532860108352e-01 -6.1109452462939189e-02
      -2.5816407847997613e-01 3.4020095334866901e-01
      -1.5339026075060952e-01 -6.0421471347211431e-02
      6.0232103465599381e-02 -2.7302379361050923e-02
      -5.7157991828988494e-03 2.4689851554077910e-01
      1.0825374236228051e-01 -1.9534065029320499e-01
      2.4125454165007183e-02 2.4776376490725363e-01
      -4.7614483941581666e-02 2.1267226630823699e-01
      1.1515671595775023e-01 -1.5206332581136101e-01
      1.3104042817087996e-01 1.5623367356778070e-01
      -4.7342825370571329e-02 5.9265452477101493e-02
      -1.9166912335008571e-01 1.2866351094092254e-01
      -2.4846721088433746e-01 -6.2911049294843452e-02
      1.3489057144767494e-01 -1.7365896919174439e-01
      -4.6980663774428090e-02 -9.2422568504938893e-02
      1.9217848972350307e-02 1.1323048050187591e-01
      -1.9830090982449873e-02 1.7458820402092473e-01
      1.2947004339267257e-01 3.0397173395834554e-01
      1.6296846746596133e-01 -1.4958636485646604e-01
      2.8871257599775716e-02 3.7133490856663467e-02
      2.6509285684850087e-01 -1.8052839806943735e-02
      -9.5791705826978046e-02 7.7422061728184866e-01
      -8.1970226116615932e-02 -6.9641982914875238e-03
      -7.5755600231945153e-01 4.1582530605338908e-01
      1.1130409548527313e-02 2.6518658146088780e-01
      -5.9206943797748206e-02 -2.7594588469018516e-01
      1.7955477693458166e-01 -1.4139941451955162e-01
      -1.5139321270367065e-01 -8.5204134508237730e-02
      9.3156441057587552e-02 -1.9208406920054344e-01
      1.4411407073954929e-01 -6.6137342160116228e-02
      4.6676078864637521e-01 1.9921118887915001e-01
      4.9971226363749871e-02 1.3206402297290631e-01
      -1.8530598406698534e-01 1.6229837389389976e-01
      -9.4873238442468796e-02 2.2504334010551844e-01
      -7.4729161855188631e-01 -1.6493080396790868e-01
      5.1707692804768363e-02 -2.6940916246083102e-01
      -6.4981305999447223e-02 -1.7930643070928895e-01
      -9.8446006154745871e-02 -1.1676137350498809e-01
      -1.1648679781009688e-01 -4.2103567890535834e-02
      5.0451027587410102e-01 2.2990416257551244e-01
      -1.7799129603753330e-01 1.8499033616306199e-01
      -9.5601087400613419e-02 -2.4991631359090238e-01
      -1.7030820371666452e-01 6.9333657035632504e-02
      -1.9158640937326313e-01 4.8692999092620814e-02
      2.1218422650505778e-02 1.5021428783723945e-01
      -1.5126565508890882e-01 1.0554537212946311e-01
      1.5790014716853325e-02 1.1453645837163555e-01
      8.2200559783668914e-02 -1.4978244540099128e-01
      -1.2817328429640190e-01 -1.6412762717644208e-01
      -9.7130281664576282e-02 -1.0980026725828637e-01
      -5.8357845524802188e-01 7.9241589003260893e-02
      -1.2169686765571643e-01 -1.8422657639346321e-01
      -1.0112521191338504e-01 1.3102065717781483e-01
      1.7887137105301568e-01 -1.0054033136795230e-01
      4.3105810797599169e-02 1.4159542608256354e-01
      6.9530726574305687e-02 -1.2315231957652759e-01
      2.1491894161252245e-01 6.1586652890531079e-04
      -2.0410143029920233e-01 -2.4746598329052457e-04
      3.1629787395599640e-01 -1.7968328631382299e-01
      9.1570303185650487e-02 -1.6979004698686742e-01
      1.3720145547221682e-01 -1.7080853620127018e-01
      -1.7071168132776299e-01 -1.0152619658835456e-01
      -3.0477813449443295e-02 -1.4192551766910305e-01
      3.0756062641717813e-01 1.6041268776205969e-01
      -2.5924630458174702e-01 1.1812271368123704e-01
      3.3869318144773536e-01 -2.1117570722815140e-01
      -2.3440057620021959e-01 8.7089461108527319e-02
      2.7137106817295642e-02 4.4872072166137200e-02
      -4.3000973857253588e-01 -2.8609759832427875e-02
      -9.1137539828183688e-03 9.1095319263354277e-02
      -6.7129759066704028e-02 -2.3907011404236653e-02
      -1.5505545662976144e-02 -1.0880525435143279e-01
      8.5691620900455803e-02 -2.6775798942381296e-01
      -1.6362271373605075e-01 4.4966316857071703e-01
      -3.6227589472947144e-02 1.2262954343002691e-01
      -1.8560381601616041e-01 -4.5955505586167303e-02
      2.3485602973196804e-01 -1.2313763901461506e-02
      -3.6845691129044476e-02 -8.3108302127702233e-03
      8.8396542983772267e-02 1.7516394728141355e-01
      -1.0284398625211337e-01 -7.8160790874262684e-02
      6.3409508580956031e-01 1.0129861291610942e-02
      -9.1636536642031047e-03 2.9364407112315318e-03
      5.4319949994596816e-03 -8.7480753109037718e-02
      1.2581886609351976e-03 -8.3975159094348301e-02
      -4.0540098601313396e-01 -2.5824843630873301e-01
      -1.1272477204010169e-01 -1.0362660114920083e-01
      1.3007015193426139e-01 6.0840766110316934e-02
      -5.1508362022937271e-01 -1.4319129361102603e-01
      3.9437059164065563e-02 1.0120213920002340e-01
      4.4264843612178917e-01 2.3092283630764374e-01
      -4.2993476532570102e-02 -1.1236637629025084e-01
      1.3277168416046331e-01 7.1864413066023189e-02
      2.0332646269080181e-02 6.7852595857449570e-03
      -1.5703430202539490e-01 -1.2752185284762307e-01
      -3.3655168024444754e-01 -2.5512327557462536e-02
      -4.0757084687343853e-01 1.9533064792314225e-01
      -9.6475984282357125e-02 -2.5987865155508976e-02
      -1.8999275199291549e-01 2.4488540519757368e-01
      1.2121991382902055e-01 -4.3042334686516109e-02
      -1.6258459724256066e-01 -1.0972224579293709e-01
      -2.1142916533039072e-01 1.4071331818282312e-01
      1.2998832700342597e-01 -3.4764521595586358e-02
      -1.4758294698301838e-01 -5.0542214500245874e-02
      1.2849675708423672e-01 2.0567265136210960e-01
      1.8312424241480836e-02 2.3049093261117543e-01
      5.4199077102785438e-02 -7.8295497208524384e-02
      1.4954414494241905e-01 3.5550014729856533e-01
      -1.3669335626650370e-01 2.9796440452738737e-01
      2.4610367335405024e-02 -1.9255607404759595e-01
      -3.0872154741142200e-03 1.2465020747280878e-01
      3.5195944770665083e-01 5.6541735577831438e-02
      -2.1564790113240564e-01 -1.7535268713141913e-01
      -6.1440951564818418e-03 -7.4207930799508506e-02
      3.2022677071478101e-01 -5.1291969278538928e-02
      -6.3775311641713506e-03 6.1387581240746565e-02
      3.2319467616230685e-01 2.6258376902060970e-01
      -3.4507514783220422e-01 4.2830776268190505e-02
      8.4289141336487364e-02 3.4959490236039559e-02
      2.1757172621015805e-01 3.6323569527518751e-01
      -4.7570983532983280e-02 -1.0863483779624708e-01
      7.1973492500518643e-01 -1.6046138702165857e-01
      8.5004983244776372e-02 -6.1144102861786587e-01
      7.2269990971896667e-02 -5.1025260911603476e-02
      5.2975524643737719e-02 4.3591947714235142e-02
      6.2016689471846888e-02 2.4545492095907598e-01
      -1.5865020673819255e-01 -3.0808580015648929e-01
      7.3773296240115097e-02 2.8592144036638828e-01
      -8.0882640380857990e-02 1.0960767649831189e-01
      2.6357057635213829e-02 -7.1686239863246959e-02
      -1.9776616830804939e-02 8.2382171882243588e-02
      4.7316698778070504e-01 -1.2890567277837317e-01
      -7.2537965902163298e-02 1.3404993559172479e-01
      -8.6775818121774942e-02 -2.4102092966380637e-01
      9.0056549950911793e-02 2.5659360994457980e-01
      6.3166469702953018e-02 2.1171167498108456e-01
      -6.3954964905277759e-02 -2.5670649241953786e-01
      1.2497743479380294e-01 -6.0473667976169994e-02
      2.7430121045093458e-01 -7.0199445323627704e-03
      9.9711986797669225e-02 1.6933702669844633e-01
      1.3408912862606651e-01 -5.9240079308800674e-02
      9.8825945578993463e-02 1.1695485546559062e-01
      -5.0562447122677079e-01 1.6350225856133827e-01
      -1.3635298760760073e-01 -1.2594169243381526e-01
      -2.7497770885197304e-01 -7.6078047364789306e-02
      -8.6659383357509320e-02 2.0148859251127574e-01
      -3.3622119663980427e-01 -9.8532235953763495e-02
      -9.0462714845638378e-02 -9.8187556542248464e-02
      1.6634148299815490e-01 6.0159685633950750e-02
      -8.4573323133761466e-02 1.9569792038956230e-02
      -1.6739175085012728e-01 5.7147536958816511e-02
      -2.8055289256185423e-01 -2.8589615172460784e-02
      -7.7337707142366860e-02 6.7565840073237196e-02
      -4.0949819352872951e-02 1.3121135488018543e-01
      7.4895586126500019e-02 2.4746758957830547e-01
      -7.9880664997158853e-03 1.0068892343396824e-01
      5.1874273691553285e-02 2.0520972892376799e-01
      9.1586670392880765e-02 -5.5536712901749197e-01
      -1.5166076616915969e-01 -5.5720959235053789e-02
      2.8695279755583752e-01 2.0248514117314209e-02
      1.8719567395410133e-01 8.1731485001273904e-02
      1.1362954636294376e-01 -5.6731514610167171e-02
      -2.7979833474068982e-01 -1.0528377249009238e-01
      -2.2393088242470158e-01 -1.3729408858059663e-01
      -2.7641621836393040e-02 7.5926950179040706e-02
      4.6108206953936566e-03 8.4427879006632525e-02
      5.0541815335513343e-02 3.4414709651181201e-02
      1.4738126342205603e-02 -4.3235724928278291e-02
      2.2457976501993725e-02 1.6623924211172850e-01
      -6.6647394091427348e-01 3.9145602513053690e-01
      1.3169793923496823e-01 9.8797598842659082e-02
      4.7190630924170968e-01 -1.3045833115480035e-01
      -7.8931365159511227e-02 -7.7373305130487280e-01
      -8.4971740322370062e-03 -2.2769577882830161e-01
      2.7533094472503922e-01 2.6542621335104512e-02
      -1.0620511034047883e-01 3.0957647559407244e-02
      4.5510729799930746e-02 -1.1747983064335837e-01
      3.1839955178485028e-02 9.1196945922286249e-02
      -8.7123603957738244e-02 -2.1786789019658795e-01
      -9.3031138144546763e-02 1.6722893788670670e-01
      1.3450947737213759e-01 -7.8091106670277006e-04
      1.5152732371617922e-01 -7.7790215247904776e-02
      1.0757678457891028e-01 -2.3307112210430483e-02
      4.4473648256499474e-03 -1.2737201174222515e-01
      -9.4059738829776349e-02 3.2309161775120054e-01
      -8.4734147991288131e-02 4.8068831406437487e-02
      -8.1503611322834273e-03 1.7932659268093198e-01
      -1.4187959310315440e-01 6.9842049372345075e-02
      -4.2438693469968108e-01 -1.4782906125965195e-01
      1.1272687874527315e-01 -2.0474210162394063e-01
      1.8632368931526613e-01 -1.0054348699711597e-01
      -4.8170621804458510e-02 -1.6951093822024940e-01
      3.3720935380618644e-01 5.0626860874985080e-02
      -5.4120724681112634e-02 -2.3203678177395617e-02
      -1.6512969304235092e-01 -1.2463946538373967e-01
      1.9638040255884566e-02 3.3504206297937482e-02
      2.6124572597940915e-01 3.0774803314841187e-01
      1.3628731804981736e-01 1.0611535942805091e-01
      -1.1035540271296254e-01 3.0589297922944486e-01
      -8.8314476429840444e-02 -6.1834478330963366e-02
      2.4747877455436062e-02 -5.1787098406069584e-02
      -1.4178910604857084e-01 1.2455739878006436e-01
      1.1675757622239398e-01 -1.8534354763893024e-01
      5.2196162639338510e-02 2.5451579473009856e-03
      1.2406362441701216e-01 1.0431482126695143e-02
      -8.0804965299189711e-03 8.6519906540186958e-02
      -6.4538879656247619e-02 -1.0456494738974108e-01
      1.4912990284088518e-02 -7.5448409738678376e-02
      7.0612502327897120e-02 -9.9929781010151097e-02
      7.7738560087736747e-02 -1.2180781061156944e-01
      -5.9126158310220660e-02 1.2927020056889412e-02
      -2.7493076747285294e-01 5.9592506430534179e-03
      -1.9173620637460715e-02 1.9165487799934249e-02
      1.9138782599010074e-01 7.7413406183244007e-02
      8.3483421310101419e-02 5.9379938790421062e-02
      5.2182484062595076e-02 1.2483917854878479e-01
      -3.0947687831043777e-02 -2.3618990393743561e-02
      -1.9255048116314039e-01 -6.8597192992814318e-02
      -1.7042484836524097e-01 1.5439875233175643e-01
      -1.5853974240062749e-01 3.7429619792833113e-01
      1.3140230306484135e-01 -2.3082216049555366e-02
      -3.4321966447133090e-01 1.0918642917431930e-01
      1.2246274778330055e-01 -5.0503306356025701e-01
      -3.6401909592962446e-03 -3.7564112305813559e-02
      2.3379907010416919e-02 -1.5237402474715153e-02
      1.3201039613570467e-01 -2.8622407808972538e-03
      5.1171232749817760e-02 -3.5213753626765443e-01
      -2.1022028911039881e-01 -7.7404994618224865e-02
      3.9711311748180524e-02 1.4736014280617440e-01
      -1.9471330136585949e-01 -2.4251735677376104e-04
      1.2123254471548700e-01 -2.6105313626806964e-01
      7.8449084829566265e-02 9.7001544358287627e-03
      1.2665115220611889e-01 6.4831753683082839e-03
      1.3895675605216734e-01 1.6780062636243907e-02
      8.4972282959116741e-02 -1.0556321915424965e-01
      1.1206220340755292e-01 3.5772529620541382e-01
      -1.3507302438516250e-01 -2.2344071460147380e-01
      1.4414944546283454e-01 -1.1405180653689534e-01
      -4.0110028677714360e-01 -1.1644121042955696e-01
      3.3050437950015482e-01 -1.0909522049586201e-01
      -4.5117621495625718e-02 -1.6755111540054093e-01
      -3.4305460930200948e-01 1.6176420406821379e-01
      -1.7835101804413461e-01 8.8903775643959640e-02
      -6.8674235120593117e-03 8.5344455632735100e-02
      2.7118856694851687e-02 -6.0715568962580969e-03
      5.1508884902988751e-02 -6.0577223687845454e-02
      1.9020638631738818e-01 -1.4859301796138005e-01
      -1.4128443120067685e-01 7.5905236125054343e-02
      1.0115667515621470e-01 1.0364133536173997e-01
      3.0771641496058284e-02 7.2607604961922034e-02
      1.1010076361878270e-01 -1.1104517962142406e-01
      4.4503519172966882e-02 1.1369624204824406e-01
      -8.3829056772060359e-02 -1.1357844112088646e-01
      1.6121479993148422e-01 1.5473964310680141e-01
      -1.0579149366479025e-01 6.3169854691210475e-02
      -1.3947244493367103e-01 7.7701280559105662e-02
      -9.7740902928542178e-02 -2.1935598297619724e-01
      9.6889440107720770e-02 9.3429510118487172e-02
      -1.3420958278578865e-02 1.1578828227478294e-01
      -9.5773272160697212e-02 7.9874934757651284e-02
      -5.5491126616608153e-04 -1.1851261593927909e-01
      -2.1545663622694969e-01 1.0099183507896921e-01
      -6.5508883638267373e-02 1.4094149442934850e-01
      -1.8277584597305491e-01 -1.3639045913309111e-01
      -2.9196386817542458e-01 6.8153992035772243e-02
      1.5183617604125257e-01 -5.0315917083290800e-02
      -1.7779559147158230e-01 -2.0105333655007787e-01
      2.3625473255105049e-02 -1.1244905990324626e-01
      2.9165692187702420e-02 -2.1049127113854246e-02
      1.0462642827962861e-01 2.5998663247794179e-01
      6.7686985672239325e-02 -4.9033588564756675e-02
      4.5688442376756433e-01 1.1183829706079386e-01
      -1.3408068467080297e-02 -3.1025963166172243e-01
      -6.6343733334910615e-02 -1.5611436395808123e-01
      -2.8281904151584036e-01 5.8370742115964469e-01
      -1.7547965231211132e-02 4.4114086880590979e-03
      -6.9679773610322890e-02 -2.1456326199893838e-01
      -6.3447840180572382e-02 -1.9352029463446327e-01
      1.5811627509761944e-01 -9.4842991120688655e-02
      -7.1478609993682191e-02 1.9729717660096499e-01
      1.5398691171794485e-01 -3.4851240427919580e-02
      2.2008391840739330e-01 4.7618195024952729e-02
      1.6853946546281856e-01 1.3973774395215161e-01
      -6.7230594620777642e-02 -1.2414973381875344e-01
      1.1372371563985940e-01 1.5583142112724455e-01
      -2.5134399834295368e-01 2.0797185610010946e-01
      -1.7716348951781205e-01 -1.5266346849345436e-01
      2.8669705418359261e-02 -1.3175536719114805e-01
      3.2828762529402963e-02 -1.2585111811599869e-01
      1.5375149162926449e-01 2.2834013323621890e-02
      -1.9256839393608277e-01 1.3049031936420058e-01
      -1.6932322867637328e-01 1.3043526785703222e-01
      -3.1639872352830839e-01 -1.4877994586423682e-01
      1.1887588213266858e-02 -2.1023250806110816e-01
      2.1051836299427609e-02 1.2722301591691792e-03
      7.7441764748696004e-02 9.5991276668097703e-02
      1.0711099507672255e-01 -1.0669257389198263e-01
      -7.4893253714189242e-02 3.0364993855403027e-01
      -7.5985501575296988e-02 -6.6874882612747155e-02
      -7.2039767640785235e-03 8.9852219814072945e-02
      -1.1310547639182429e-01 7.7374986294908854e-02
      -3.4495406220860791e-01 8.9581052138840947e-02
      -2.3804133279331902e-01 1.7777551354625992e-01
      -9.5726796626254509e-02 1.1576953949762619e-01
      1.0283982357355979e-01 6.9988885879684284e-02
      4.2402174214781665e-02 2.0241726792461939e-01
      1.2626772237195485e-01 -1.9628410567161456e-01
      1.7470291459035414e-01 -1.0652783676627425e-01
      -1.0215319001604896e-01 3.1502915157906686e-01
      3.2155974765992038e-02 -7.9828789453369797e-02
      -2.5922452964522232e-02 1.2965157466400659e-01
      -3.4215885438436046e-02 9.1202950306727884e-02
      7.8986829757882335e-02 1.8002143186191064e-01
      -1.9253391914117979e-01 -1.1848009440394855e-01
      -1.7443504270236609e-02 3.1634307592297371e-02
      -1.8923196918296653e-01 1.3251417595405385e-01
      1.0121865043454216e-01 -1.5488953866177724e-01
      -1.9849960653274676e-01 -9.2119615668805874e-02
      1.8081756018641768e-01 2.2264616591551700e-01
      1.2483738190238713e-01 -3.0284838728887953e-01
      -8.2067521806673427e-02 2.8649192538789680e-02
      6.0753518575295352e-02 2.7980469969914358e-02
      -5.1513501258113596e-02 -2.7156703528363746e-01
      8.0624574155303386e-02 -1.6169038459284241e-01
      -4.6687732786685499e-01 3.6429276133226640e-01
      -8.3376880900604966e-02 2.5094043908243002e-01
      -1.5579670790545661e-01 -1.2622128535085164e-01
      2.0643507608909437e-01 -4.8790536009092840e-02
      1.8476226544119942e-02 -1.1655767371759294e-01
      -1.9560196000177840e-01 -8.9639989637527825e-02
      -1.1642119307301156e-01 1.2132289393997628e-01
      4.8090826732212033e-01 6.2454897130266984e-03
      -8.9822763676559267e-02 -4.2289661995968397e-02
      -1.0731494725685950e-01 -1.9398681020263728e-01
      -1.4073140504244352e-01 3.2907224859211831e-01
      -5.0870248650271421e-01 -7.7469590290351109e-02
      1.3040910692463134e-01 -1.0342912294206753e-01
      1.3998097333205028e-01 -6.5446619853676571e-02
      -1.2994142204111500e-01 4.2066155660417867e-02
      4.2153378951706710e-01 -2.1817831179069954e-03
      8.0729868491165746e-01 2.0877449124241590e-01
      -1.9254367722560622e-01 -1.5363070841147240e-02
      1.2613410892715693e-01 -9.4271393994698277e-02
      -8.3861765516525008e-02 -1.0985062935869813e-01
      -1.0638851818696146e-01 7.2957976553365694e-02
      -1.4252598344993528e-01 6.3636396655539190e-02
      -1.0770709613003353e-01 7.5702961940491004e-02
      -2.5245417641777842e-02 2.8218116712876196e-01
      -2.3131498626412977e-01 3.1468759415410524e-01
      -6.5774383873321809e-02 -2.1081562716928438e-02
      -2.3741631364225295e-02 -1.6914283809412643e-02
      1.0102229825970865e-01 1.6925796098423592e-02
      -2.0694035785619048e-02 3.0988950799533305e-01
      1.0448637734304177e-01 -3.5355376196426126e-02
      4.6750563597866585e-02 -7.7563654778851923e-02
      1.9131182663142739e-02 1.8375594537863465e-03
      -3.4285754069534873e-02 -2.1012479037633694e-01
      4.9960642475648638e-02 -3.5955095834552736e-01
      -1.4534651528218606e-03 -4.0882333360192343e-03
      5.4713167061822825e-02 -3.0254814619028122e-02
      6.0961239469218158e-02 1.0022677228420555e-01
      -1.8515610045494330e-01 6.2058942596190339e-02
      -1.6569478678800635e+00 7.4200454917078509e-02
      -7.6873709665410614e-02 -1.6147485157009162e-02
      6.1078563246816175e-01 3.6850545041424716e-02
      -2.7596877918332579e-02 2.1224302023922489e-02
      1.4801864694795513e-01 -3.6858413061274292e-01
      -2.4336149378280998e-02 3.4051568080926673e-03
      -4.2530947543452956e-02 6.6344352159899547e-02
      -2.8865509778029402e-01 3.1625381232282374e-01
      5.1233445602678215e-02 3.1910021844502368e-02
      2.0275591231311077e-01 1.4545960087286341e-01
      6.3481901707490435e-02 2.2190977863930642e-01
      7.0065261650383598e-02 -8.8313880610849119e-02
      -5.2895516314802804e-01 -9.6227622530726864e-02
      -1.3832828327230658e-02 -8.6036535995683325e-02
      -3.6418800318521023e-02 2.3837337321584975e-01
      8.5277896830074404e-02 1.1194084051439068e-01
      -7.5056718294144592e-02 -1.4601071563101026e-01
      -1.4923932017814984e-01 7.8897575082610430e-02
      8.6211950456107744e-02 1.0069888248559230e-02
      -4.8277594047736114e-02 1.1433593949146303e-01
      4.7907287404752009e-02 -5.4513608708684172e-02
      5.8387489115989240e-02 -7.6494526495123477e-02
      -3.7189444806561722e-02 -5.5996466136130713e-02
      -2.4443498269101277e-01 3.6246400306805338e-01</_>
    <_>
      -6.7732974654902064e-02 8.6329275544587747e-02
      6.4554947820798125e-02 -8.2670741517588284e-02
      1.0883371255597495e-01 -9.5090376414611461e-02
      -2.5393554767057309e-02 4.8695490926980813e-02
      5.1787783698844708e-02 -2.9246145673112602e-02
      -2.9895869041834486e-02 -2.9306044985140491e-05
      4.1968390390932489e-02 1.0875503377056099e-01
      1.9687488157808516e-02 1.9229437497536306e-01
      -2.3963954491949654e-02 -1.7368001063656022e-02
      -2.2635197275595393e-02 -9.8950508711964972e-04
      1.3053374049567926e-01 -6.9614235437205824e-02
      1.2085979227551634e-01 3.1245546171318476e-02
      -5.7364662450803496e-02 -3.1739864156807233e-02
      9.1192746618642184e-02 -1.0617795700921731e-01
      -4.3776997203152715e-02 1.1112084306909124e-01
      4.3008177647448964e-02 1.0590884101513433e-02
      4.4601121664771003e-02 1.6891541700037597e-02
      -4.4407266700315105e-02 -5.5587130830748984e-03
      1.0193820000676365e-01 -4.8529870408297079e-02
      -3.3152572732871180e-03 7.9881110667590453e-03
      2.4799700172150364e-02 5.0453691413724376e-02
      3.9559407338335677e-02 -2.2630229929117535e-02
      1.3768100145635986e-01 5.2946146892632398e-02
      -1.7619134896441596e-02 1.0495220638548303e-01
      5.4212917286579752e-02 -1.1423519915233359e-01
      -8.3885862313902174e-02 1.2641693126101120e-01
      6.4343059649835943e-02 4.8735322547860303e-02
      6.5906522562203626e-02 6.4920298786918476e-02
      1.9625925406535842e-02 -2.2248727183383964e-02
      3.1339412710783741e-02 -9.6811522288551402e-02
      1.2579395492819494e-02 -7.7730483621701638e-02
      -1.6575301308170667e-02 1.0648853325063713e-01
      8.7818295811060876e-02 -1.1705484391029526e-01
      -1.9356577330705872e-02 2.1163857846255903e-02
      5.3088208893957399e-02 -1.0986218731678683e-01
      4.8443009043588524e-02 1.0492269981242057e-01
      -9.8643717036601505e-02 -4.5091541039771407e-03
      3.3652006452683922e-03 -8.7265555169542014e-02
      -7.6071429104026755e-02 5.9778390569575684e-03
      9.0072813143678668e-02 7.0480172177007680e-02
      -4.3185088433945454e-04 1.2128332959986181e-02
      -2.1159783548530920e-02 -4.6684958719420869e-02
      -4.3650265579740263e-02 -2.4060830645258598e-02
      -1.2121151657829201e-02 1.0534253766025634e-02
      1.0907807005425076e-01 6.3875158903683241e-02
      4.9145249414966445e-02 9.3665232981148788e-02
      1.6632519365895281e-02 -5.5425560026275578e-02
      -1.1385116954461180e-01 -5.0526703454309110e-02
      2.6040256618287249e-03 -1.4229712676576359e-01
      1.5155052326120593e-02 -1.1781982079578097e-02
      -2.5843335807637052e-03 -3.9728624491335109e-02
      -2.2184597761565145e-02 4.1325528408349015e-02
      -3.1115829135537315e-02 2.4599334919618961e-02
      1.0074436753733151e-02 -4.7929331293649971e-02
      2.9543611038474697e-02 6.2017703665640097e-03
      -4.9050540502276765e-02 -5.4746903041573765e-02
      -1.0970606113476172e-02 9.0767113828186072e-02
      -3.8765866805656440e-02 -1.0159468768188162e-02
      4.3148401538945523e-02 -2.6195267633159439e-02
      -2.1534645943228806e-02 -6.7604015638017240e-02
      3.1970004155793118e-02 -3.6922983996674159e-02
      1.1839291252836290e-02 -8.1495862885339195e-04
      -1.0990457512914944e-02 2.4100312418909604e-02
      6.4485025681520992e-03 3.1322860079542399e-03
      -7.3065832324742666e-03 -7.7091383390968105e-03
      -1.3058569877352618e-02 1.4595205257019867e-02
      -3.9921044908544312e-02 2.1554371764264415e-02
      2.3395390346552733e-02 7.7493101454614724e-03
      2.0276514911927664e-02 2.6593405011081622e-02
      2.1740292479028511e-03 2.7549220733653107e-03
      -2.0973158063039239e-02 -1.8273278917159377e-02
      3.9423456482632407e-03 -8.5989985065339850e-03
      -4.1410917932961713e-02 4.1598457297264878e-02
      -3.0011701293150207e-02 -2.2208924350282263e-02
      1.7398934698408457e-02 5.1443023542887371e-02
      3.4959375831095790e-02 -2.3139846198045835e-02
      1.7839415091358444e-03 -4.0912154577692136e-02
      7.1054188121646308e-02 -1.8060370662230436e-02
      4.1959855922473151e-02 5.4039751580107584e-02
      -3.5345692304810349e-02 -2.1518161017118124e-02
      1.8190026512853411e-02 4.4963614992046555e-02
      -9.1397063614682875e-02 -8.9089375833892939e-03
      7.7214934893109679e-03 2.1768749722353938e-02
      -1.0614058975362490e-02 6.4574208455931426e-02
      -4.0519340825739540e-02 -4.6995611183806851e-03
      -5.8152341724054058e-03 1.8736139824254601e-03
      -6.2197680379100562e-02 7.7489027674068636e-02
      2.0496594362246795e-02 1.8320398744152051e-02
      -1.4230662364396431e-02 -1.8430192614768196e-02
      -9.8078980370972079e-03 -4.1761163040274558e-02
      -2.4320818650019251e-02 1.6057021366156665e-02
      6.4895178340703560e-02 4.1886136253615397e-02
      3.6218260993305218e-02 -4.8340514456802521e-02
      3.3456553859752797e-02 3.7206140784073950e-02
      2.4589872191829558e-02 -3.9177588649391235e-02
      -5.7509785331814514e-02 -2.0747573923560223e-02
      7.5765260087752043e-02 3.1204057056673323e-02
      5.4156228791292352e-02 5.5589300191177839e-03
      -4.5770343045418521e-02 1.4910894531920195e-02
      4.1215523852300893e-02 -3.9328614289728940e-02
      9.2485978645372498e-03 2.6502822623857007e-02
      2.3976640528311860e-02 -9.9879061690539336e-03
      -1.4717171928495107e-02 -3.1076460866674715e-02
      1.6967125669734996e-02 -1.1358047259300974e-02
      -1.9547824521497739e-02 1.0449113283820069e-02
      1.4857051903981863e-02 4.0325772639401868e-02
      -1.6756154553929356e-02 -6.8493034715861087e-02
      9.2264077962985087e-03 3.3647008863146088e-02
      -2.3970101792287403e-02 1.1925820941410242e-02
      1.1343822999864313e-02 7.2966939123778650e-03
      1.0894581992289260e-02 -1.6536390038258682e-02
      1.2461400312138462e-02 -1.9071078165757715e-02
      -5.6861577231749803e-02 9.5854358235129018e-03
      -1.1525447096352488e-02 2.4420772552805644e-03
      -1.2535719255313809e-02 1.9694192702356301e-02
      -7.5173257386526244e-03 -7.0700409840601455e-03
      -4.7831530901776250e-03 -1.7273238229911766e-02
      6.7515434445723057e-03 1.7026887474918605e-02
      4.2719299343147278e-03 -2.4181767186704631e-02
      4.4010568371317506e-03 -9.6338244268143920e-03
      3.3590165828194093e-03 2.3104557669059243e-02
      -3.1900704602382424e-04 1.1394714266020746e-02
      1.5355326738927619e-03 3.1056631773885611e-03
      2.0688545707217838e-03 -1.6958256573589392e-03
      -5.9551789465751839e-03 -1.2295883394196686e-03
      -2.0380473186340203e-02 -2.3109492913042855e-02
      5.9092792054288561e-03 2.1453599316522617e-02
      -3.0805097171126856e-02 2.5551830749341815e-02
      1.1377523727475133e-02 -4.6581196278676646e-03
      1.4260765288303114e-03 8.6885487865566331e-03
      -2.8233681229849164e-02 -2.4799123313608250e-03
      1.4951535983537302e-02 -6.4508760666473512e-03
      9.6755523628274005e-03 -2.6412485985976095e-02
      8.5982305836318357e-03 -2.8449055062462467e-02
      2.9952755239687746e-02 -1.0751120899838438e-02
      -2.1185721604522142e-02 -1.5776635024643355e-03
      -2.6420896309368113e-03 -1.8034784076640494e-02
      2.4305205198542772e-02 5.5526167481640652e-03
      2.4208451030373185e-02 1.3827312861821565e-02
      -5.7787501498781308e-03 2.3530267532869228e-02
      8.8916669358160788e-04 -2.5961469070345702e-02
      -2.6199399178335057e-02 -8.5955230586258924e-04
      -2.8508641376064400e-02 3.0302306481260977e-02
      -8.1609595755065874e-03 -3.5683044995345685e-02
      5.2688584007386813e-03 1.1566296109468140e-02
      3.6401823734500752e-02 2.1162566347923784e-02
      -2.2969096098422924e-02 8.8905733143667103e-04
      -2.3056395270078484e-02 -2.2465353848686157e-03
      1.4712517182322516e-02 -5.2892774431683529e-03
      -4.9703378335951495e-02 1.3572223781582951e-02
      -2.8098289142433320e-03 2.2474385510639461e-02
      9.4065195519229781e-03 8.4247769908587650e-03
      -9.9686250486050228e-03 -1.4959572368377626e-02
      6.5789945363114964e-03 -1.5935938041927934e-02
      -3.3221436461554621e-02 -4.7568208394677151e-03
      -2.4104153818713246e-02 2.1199804408115627e-02
      9.0080853544560330e-03 1.3915354329399940e-01
      -1.4798925975049412e-02 1.1050848492666394e-01
      -8.1599417544076167e-03 7.9498281315180889e-03
      -2.3349781602943594e-02 4.7527082276533758e-03
      1.3646624258392080e-02 8.8323525543533132e-03
      -1.9562257534174645e-02 -2.3020874047603782e-02
      2.6614772584938762e-02 -1.7818155554931350e-02
      8.8335799205354823e-03 4.6311854136555870e-02
      -1.4512060437668639e-02 -1.4485253621113756e-03
      -7.2533354807532294e-03 1.5565770656688504e-02
      2.4475601939705886e-02 3.1696959954264567e-02
      -6.7825797509351452e-03 -7.1321589560309614e-03
      -1.8113324781050363e-02 -3.8553878328942946e-04
      7.9809836747832610e-03 3.2358541481095938e-02
      2.1324913760618822e-02 -1.2302245711440698e-02
      -2.0412447556667431e-02 2.6041323601687129e-02
      3.3225385479639130e-02 -2.8322016851914083e-02
      -1.4015420338315798e-02 -5.9391119513589798e-03
      -1.4933920518607270e-02 -6.4101958797196587e-02
      -1.0775493102214449e-02 1.7420225456736289e-02
      -8.4821519715554596e-03 3.5491510378848741e-02
      1.2244227441597946e-02 2.2150066034806754e-03
      -2.3290603579292787e-02 8.7544107003534200e-03
      -1.4766558907905134e-02 3.7976885632915527e-02
      -2.6582508930715034e-02 -2.6787399324137802e-03
      7.8683142336606650e-03 -6.7262111448116299e-03
      -1.7378333430487693e-02 8.1312651159494986e-03
      -1.6331608740135905e-02 5.5586823266762673e-03
      3.9577448861197184e-02 8.7101654651067668e-05
      -9.4315407233860286e-03 9.9709345457820731e-03
      -5.5903203958974038e-02 -1.6626013459948748e-02
      -5.2102800542702761e-03 -2.1017242795129801e-02
      -8.1295826048142072e-03 -1.1366817113124263e-02
      -7.1505475228504731e-03 -1.5830004489711454e-03
      -7.1883804220859472e-03 2.5156992630160885e-02
      -1.1985349277110912e-02 -3.1967830037325437e-02
      -2.8473054773209900e-02 -7.6835044215025558e-03
      4.5329139813659602e-03 -8.5502850908275516e-03
      4.0092002006114659e-03 -1.9356118737871352e-03
      2.3278279307670600e-02 -1.4062482167796848e-03
      -1.9383890803032197e-02 -5.7520667285224734e-03
      -8.7480056446311676e-03 4.3272874042770193e-02
      1.7229019854765232e-02 -1.5247698447083504e-02
      6.3211961468322794e-02 -1.6241743127432734e-02
      6.7555035430846219e-02 8.6488065480736870e-02
      4.2892090017411087e-02 5.8253325092452582e-02
      2.8531973200117831e-02 -1.0263062169852032e-02
      6.0803369557881154e-02 -8.5455284775218188e-02
      1.1519230183262921e-01 -8.6016767487609586e-03
      2.2751392694850384e-02 -6.5503747422213307e-03
      -7.6151380123491097e-02 -1.5065449680864653e-02
      1.4422630124514188e-01 -6.5781634299795763e-02
      -1.2047837287339144e-02 -7.9822834863560177e-02
      8.3054596736510777e-02 -8.2218542270306328e-03
      1.5239896759631053e-01 -1.2509457394504164e-01
      1.4370483225573341e-01 -1.7484757326039747e-02
      -1.8109477045835598e-01 7.2885521004536699e-02
      -1.4061466630646519e-01 -7.1560303667004291e-02
      2.5332433317495642e-02 5.6139589193547487e-02
      -6.3726320923903110e-02 4.5462474221446787e-02
      -1.8300003356561551e-01 -1.0395040224827924e-01
      4.0159863515375580e-02 -4.2030492314833181e-03
      9.1772591915295826e-02 6.9839644645812507e-02
      3.6104698583285535e-02 5.5412870341881174e-03
      -6.7185151033031201e-02 6.7737031601490888e-02
      1.3469892146203899e-01 -3.8438769620324081e-02
      -3.0515801888828176e-02 7.8266663482238208e-02
      -5.4267107380015389e-02 -1.1500086336914178e-01
      1.1139973791438836e-02 1.7287840870273577e-01
      3.5378267826169409e-02 -5.8329847523872817e-02
      5.4199188530126098e-02 1.3240581851704335e-02
      1.2764901406382781e-01 -7.2185966234244114e-02
      1.4285397137491720e-01 1.1067644298301406e-01
      -4.4755490348644171e-02 -7.5577980060198183e-02
      3.2674223835972738e-02 5.0860900299329818e-02
      -1.8440095765936829e-01 7.3646404639958626e-02
      1.6347318920439252e-01 -1.1207376075004134e-01
      2.5165735051637956e-02 3.5439905306553235e-02
      3.7877069585173513e-02 -5.1934778377779600e-02
      -5.6623730686286525e-02 1.9597167952309785e-02
      -1.2151341849956877e-01 3.8882759023326059e-02
      1.5076003138148436e-01 1.8419661605063989e-02
      3.0480728579539988e-02 3.0339855261214046e-02
      -8.1692682010012077e-02 3.7530207103598627e-03
      1.7801418606837188e-02 -6.3160711186373841e-02
      5.6109146501797644e-02 1.1390341135354674e-01
      1.6571402350273454e-01 7.3275587358505812e-02
      -1.2498771144741080e-01 5.8278176345056776e-02
      7.4366201582801911e-02 -7.9266296680656462e-02
      -1.1988789682590117e-01 6.3646660032786767e-02
      1.3896914396995355e-01 -2.5706357581933410e-02
      1.8004055963922561e-01 -8.2235595363195010e-02
      -1.4574296856651311e-01 1.8723632229459355e-01
      -4.9092755960996194e-02 1.6808305710654620e-01
      -5.5065478027432049e-03 2.7178696013973068e-04
      1.7454501330607393e-02 -1.7834281367394712e-02
      -1.4061454060393703e-02 -2.9367535185903459e-02
      1.9854731591234889e-03 -2.1043302359185327e-03
      3.1446719063844608e-02 2.1134298579449672e-02
      -6.2566451933902617e-02 -2.4262454687799365e-02
      2.5355546533225692e-02 2.4998298050687155e-02
      -5.2015182033113439e-03 6.5772891738231171e-02
      3.6266158730922940e-02 -2.8244976423468598e-02
      9.3045725489228921e-03 -1.9912435601046070e-02
      5.5873663128085040e-02 -3.9756427902806313e-02
      4.6859348796771533e-02 1.2156185244150224e-03
      -1.0335315880182128e-01 -4.0384120765053870e-02
      4.5777425962730016e-03 -7.5398202758520244e-03
      -2.6744947052099580e-02 6.0808325768353828e-03
      4.1502554494249229e-03 -3.1699539842585313e-02
      1.7288470615030992e-02 1.1176660363832334e-02
      -2.7642202406494409e-02 1.7449896247718659e-03
      1.2710313625833205e-03 -2.7916945129919702e-02
      7.4576991877068335e-03 -1.8424136419257428e-02
      3.7750505400517130e-02 1.5485412288873943e-02
      1.3599996358292955e-04 -1.5896124617039428e-02
      2.5450723241328400e-02 1.5594635040796372e-02
      1.7694338620153908e-02 1.8296705677165286e-03
      4.5762879474697885e-02 9.0769994846238186e-04
      -6.1585026572552728e-02 -1.0911645899104386e-02
      -9.6032731405510142e-03 8.5474857112203422e-04
      4.7239895522090472e-02 1.5868187187032357e-02
      2.0680485907912070e-02 8.4273932030026217e-03
      1.3381415380593006e-03 -1.3094623462931630e-02
      -2.8173345592597291e-03 -3.2559040849566615e-03
      -4.1171074533711466e-02 2.0744035447570877e-02
      1.5603971543898733e-02 -2.1706395671067202e-02
      -1.8732775942944740e-02 2.4909945067269051e-02
      -2.1430029524252180e-02 7.8342608138250672e-03
      -7.4079022220915934e-03 2.2805242254923634e-02
      -2.1979637813472928e-02 2.7445002148794913e-02
      -3.7482423993349615e-03 -2.3330092079756705e-02
      -3.9824721737047646e-02 -2.0987536419134752e-02
      2.1727412307873985e-02 5.3159753460661164e-03
      -3.7938567479908598e-02 2.6425672822442837e-02
      -1.0568847042467539e-03 -1.2808853824874693e-02
      -3.8626968375088375e-02 -4.7021150742745828e-02
      2.5929597543594328e-02 1.5597151322112221e-02
      2.1139081807042714e-02 -2.0871737382823753e-02
      -1.2328629080533962e-02 2.0401426199408625e-03
      1.6796231652000546e-02 2.9698837602055526e-03
      -1.2867735514968476e-02 1.5787369647762128e-02
      7.4137715507841097e-03 -2.0533995554714062e-02
      2.2074980243603565e-02 -3.4960972589808730e-02
      -9.1971234888804071e-02 -7.7417054105608979e-02
      -3.5040722861198158e-02 -1.4867712026489882e-01
      -2.5759646674796115e-02 1.8459716473912408e-01
      3.0347218358711694e-02 2.6871738443092725e-02
      5.5759659556262164e-02 -1.4529628151621352e-02
      1.1505995563028018e-01 1.5478615679515615e-02
      -1.2170575910926987e-01 -2.6330906634503387e-01
      1.9594239629758445e-01 -2.7986702762789967e-01
      9.8333140537658140e-03 2.5125458066266510e-03
      1.8015023292773047e-01 2.5420408997548549e-01
      -1.6748359908854430e-02 -8.2392661669160053e-02
      1.1502320390510712e-01 -1.8727797463614854e-03
      2.3211283979486458e-01 -9.0889784055066522e-02
      -1.0372210959749861e-02 -7.2872484142850052e-02
      -4.4026177292322055e-02 8.3105546555988577e-02
      2.3179354744082507e-02 -2.6581554033245502e-01
      -5.1989966610194262e-02 -2.5661516228675130e-02
      8.6999385251361722e-02 1.3568538092023891e-01
      -2.5439019613856948e-02 -2.3613573829191745e-02
      -8.9384883065750653e-02 4.6324040381712631e-02
      1.0314545720180301e-01 1.1448366052240114e-01
      -1.7388954209855628e-02 -5.9070790396735962e-02
      -1.3562854155859577e-01 1.8054776339511555e-01
      9.6399011285203715e-02 5.5261824907247376e-02
      -1.4819993856520761e-01 1.9475942430804397e-01
      5.3100239417391629e-02 -7.7977723835423091e-02
      -6.1104529638656953e-03 2.2375505541168253e-02
      1.3820428818427369e-01 -2.6286514732476196e-01
      -8.6886551467906706e-02 -3.3090585921035254e-02
      1.7240191592867332e-01 -1.5100925264500503e-01
      -4.2687093122988760e-02 -1.8164981262102195e-01
      1.3920415917022862e-02 -9.7948777772520881e-02
      6.1654506194639837e-02 -1.1403149706403796e-01
      5.1052007800818922e-02 -1.2484519365190852e-01
      1.8249213072769471e-02 8.9265832045241338e-03
      -1.8419718782211239e-01 3.7303343670426363e-02
      2.9809642006041170e-01 -5.3278138525999288e-02
      1.8198294097389381e-01 2.9515529258930001e-02
      7.5092613244100742e-02 1.1521135049245827e-01
      -1.9514080083657129e-02 7.5626380473766089e-02
      1.0064406094027444e-01 -2.1911808092398261e-01
      -2.1196688073672881e-01 6.0695395682828099e-02
      -5.5113765726489190e-02 -3.6789432060144990e-02
      -9.3379135485743715e-03 -1.9730786489882213e-01
      -8.5037984007574757e-02 -5.6184071208259280e-03
      1.0883673163802003e-03 1.5946323707126489e-01
      -1.3763924905243069e-01 1.1775105002199868e-01
      -6.8181358493916794e-02 -3.0564558376031503e-01
      1.3629767261404582e-01 1.9699791525638635e-01
      -1.8937806157857040e-01 2.4350647119972249e-03
      3.0731721821829688e-02 3.8328441613515653e-02
      4.5157976434756469e-02 1.0480576734722425e-02
      1.1751122928481780e-02 -7.7349191149620484e-03
      4.3135092807115943e-02 -1.3453336220146013e-03
      -1.7272182047883111e-02 -9.6144122079704630e-03
      -1.6913219282377590e-02 4.1791576630331125e-02
      -4.9714271821547119e-03 -3.5216715490802609e-02
      -9.8652820112235338e-03 -3.8375602497007069e-02
      -2.1936923686013778e-02 -2.4169499312372163e-02
      2.7527249503872604e-02 1.0788495620998281e-02
      -6.2808874098871943e-03 6.0308915668337579e-03
      -2.8234968150650415e-03 -1.6463444357470169e-02
      -9.4905517723794353e-02 3.2598500123228465e-02
      -3.3882705141080903e-02 8.9415417900018928e-03
      -3.6378054424305358e-03 9.2177498861459612e-03
      -2.4071108700298396e-02 1.4016523618713956e-02
      3.3262610055031241e-02 -9.8339318106202642e-03
      5.6775597451658548e-03 -1.6008021359432491e-02
      -1.5625699515685668e-02 -7.6306628562141073e-03
      1.1319729346234705e-02 -2.2985690926244504e-02
      2.6614244392277091e-02 -1.1695257872622626e-02
      4.8375409245458888e-04 4.3906112403167118e-03
      -3.9849478042086287e-02 7.5492148301759873e-03
      1.5654345468916506e-02 -3.7111176132301783e-02
      -1.2282217510143478e-02 -2.2751774615398228e-02
      -3.2729856011604265e-03 -9.0227887579787600e-03
      -1.0222990772912883e-02 5.4330521244068140e-02
      -4.5088184704373625e-02 -7.9151951363614845e-03
      5.8589048551273048e-03 -1.2336017948829032e-02
      6.1799390796200464e-03 2.3621438443154414e-02
      -9.5072021547424283e-03 2.5924804340503281e-02
      1.6699855012306648e-02 -1.2740318506354846e-02
      2.9580307721786697e-02 -2.5821611925118306e-02
      -1.9749987539494855e-02 5.5212628322642903e-03
      5.4695833894998831e-02 4.2753339033378187e-03
      -1.9726380242244171e-02 -2.3199425802580408e-02
      -3.3499132264194084e-02 -3.5091904359527554e-02
      3.2587243411937104e-02 -3.5843353283728147e-02
      2.2035502595747308e-02 8.4996600098463156e-03
      -2.2786026306671283e-02 4.2583816420793622e-03
      -8.4979490494605965e-03 -3.3787430480770222e-02
      -3.2221371224208636e-02 -4.8383418287768119e-02
      -1.1455446851232188e-02 3.6653550222594075e-02
      -1.0902631084817824e-02 -3.1578135377810929e-02
      -1.6657613660909350e-02 2.8288730040466778e-04
      3.0544654396791125e-02 6.0981832704034176e-03
      -3.0870209627058602e-02 -3.5362112653249088e-02
      1.2105253331276428e-02 1.4229723429648063e-02
      1.6626413534268952e-02 3.7594562030823469e-03
      -2.9382601612723382e-03 2.0040631633930880e-02
      1.6995920688269078e-01 -9.7019766283671871e-02
      -1.1839872967399462e-01 6.9654747852670659e-02
      5.0559581011573144e-02 -6.4931658100219641e-02
      2.4945874058892641e-02 -1.2852084942483818e-01
      2.4498952404644453e-03 2.6284869641948218e-03
      2.9050965749941876e-01 -3.6183096750240312e-02
      -1.4417801921591650e-01 -1.2523089584211181e-01
      -5.2561372028739700e-02 -4.0986100128366870e-01
      -5.7914765921769702e-02 1.6045887280723578e-01
      -3.6888313498281033e-02 -9.9615237302852419e-02
      -2.4687956678316295e-01 1.5535658798070451e-01
      -1.0748832528457453e-01 -4.4023510085261071e-02
      3.5937398465665754e-01 1.7578330309320755e-01
      6.4764713842271546e-04 9.9674864896135723e-02
      -3.9318076669809784e-02 -7.8479120244147341e-02
      4.8217595817496330e-02 2.9610882867136518e-01
      -2.6373826777613835e-01 -1.1488651421797466e-01
      2.0832734414816415e-01 -1.3213646048790928e-01
      1.1033003089669952e-01 1.6833848509561272e-01
      -4.4916628539560882e-02 4.2026585179691246e-02
      -2.4678108497074347e-01 -1.0590043107099714e-01
      1.4060319286610629e-01 1.4868882840633266e-01
      2.2438303065711099e-02 -1.5386974468624644e-02
      -3.5004377295006645e-01 -1.2473630306081206e-01
      -1.1241954661223127e-01 2.2973473266705780e-02
      1.8176268431507281e-01 8.5580640189448540e-02
      1.5640249044863588e-01 5.2982398424401771e-02
      -2.9180582182684756e-03 5.3035764433082330e-03
      1.4464369732224500e-01 -5.9559827135171925e-02
      -2.1529387372591735e-01 1.3166069062087424e-01
      -6.2853812496946784e-02 -4.1661759054259083e-02
      -1.9811647989774214e-01 -3.5372850910087100e-02
      8.0861247818563728e-02 1.0970064731875917e-01
      6.2673893220162022e-02 6.4670807211411260e-03
      -8.5946586624991161e-03 6.6396460525494055e-02
      1.2953506868395978e-01 -1.0827995421540394e-01
      3.3297707658637787e-01 2.3634854637544615e-02
      -5.7208049702650796e-02 1.1418275420926274e-01
      1.4906057599628453e-01 -1.2338560142798924e-01
      -2.8523770952714151e-02 -5.7934694354831985e-02
      1.9479795568820688e-01 1.9852390947912098e-03
      8.6482483325074508e-02 1.9978693179791596e-01
      3.8510532130405289e-01 8.6604059599604016e-02
      -2.2662276096176440e-01 7.8248763927491444e-02
      3.0708827914734432e-02 -5.0671599887965726e-02
      -1.3300838791756442e-01 -9.9200498421924313e-02
      2.2244325887271846e-01 3.8841466041628130e-02
      1.3032994742953674e-01 3.0123686949895378e-02
      -1.8529974838803995e-01 1.7992159301375846e-01
      -2.7165626511615715e-01 2.2938504136368928e-01
      -4.8337829758336850e-02 -5.2307960488439092e-03
      -4.5754593593580629e-03 -5.9461561774192769e-02
      2.2652799310646708e-02 -2.0810944227557509e-02
      -2.4856466998669349e-02 3.0385073777236843e-02
      1.9120289954799422e-02 -2.3304994986246469e-02
      2.4044953786847047e-02 -3.2428122603583194e-02
      1.2271659756923870e-02 -1.2569988058887285e-01
      1.4163187633232176e-02 -6.5049876754745800e-02
      1.1037727174076789e-03 3.1149626155499870e-03
      1.7826816772858992e-04 -7.4176558513518185e-03
      -3.6085326644928355e-02 -1.1231994703713583e-03
      4.4497608222401765e-02 4.1582682097266108e-03
      1.5968703012559973e-01 1.6684156117472926e-02
      7.7304500481079994e-02 -6.8124951164372600e-03
      -2.4656732998553622e-03 5.4262586103553050e-02
      4.0427429405661491e-02 3.7962207852987270e-03
      -1.8250285157140662e-04 2.8078144033813045e-02
      7.0366541231072447e-03 1.1088858281195688e-02
      1.0503488544101599e-02 -2.0173827008666211e-03
      1.0424516155718466e-02 2.2902933441008539e-02
      -2.8127288778866956e-03 9.9968819582792398e-03
      1.9899087369298702e-02 -1.7859620032274960e-02
      6.0272069139607594e-02 6.5455157351399593e-03
      -1.2901490745506772e-02 7.8094108650859653e-02
      2.2790574169371178e-02 -3.9553621773445076e-02
      1.4927564011557705e-02 3.2897393464311947e-02
      2.5389052410014754e-02 -1.9180703862505488e-02
      1.5157874916050355e-02 2.5943709011917199e-02
      -7.4691773963855889e-03 -2.7567793305960920e-02
      1.0306317140199722e-02 -5.7634361645328806e-02
      3.1424228338869820e-02 -5.0048543512867055e-02
      3.6798173206379514e-02 2.9950519454025222e-02
      1.4283139471008068e-02 -3.6660408224529852e-02
      1.4032877181389245e-02 -1.6075775189010228e-02
      2.4364277818064869e-03 -7.2239634509807249e-02
      8.0553415895869146e-02 4.0706626220621350e-02
      1.1123066033518091e-01 6.9404041428023713e-03
      -2.4164257406572229e-02 2.3312127901583836e-03
      -7.1553953900241093e-02 -4.5661109488095543e-03
      7.9584606425264770e-02 5.4308188110756489e-03
      1.9946313571100216e-02 -2.6669812270178322e-02
      -1.2239340152785546e-02 -2.5057474477382387e-04
      -9.6737660468887467e-03 -4.7943666154573315e-02
      2.7335025586945451e-03 -2.2531442100869721e-02
      4.7285562858857016e-02 3.0965811841662937e-02
      7.9976041839311621e-03 3.8554761281405781e-02
      2.0419241849427960e-02 -8.1680613255160923e-03
      -5.2226665989886324e-02 -8.2847375797215336e-02
      -3.3477769565759895e-02 -4.9329280277879056e-02
      -4.7459861591079872e-02 -1.4313578256746069e-02
      -3.3739795168830126e-02 -9.8315463235010263e-03
      2.5258635475330735e-02 -1.7687706190786939e-02
      -4.3017577029197777e-02 -7.0004204360607806e-03
      1.2908632526841308e-02 2.3857379926702986e-03
      3.2254676210737146e-02 5.5315108053535240e-02
      -7.2772861670368449e-02 -4.2128441696666151e-02
      3.8774307540239583e-02 3.4998209877674775e-02
      5.8600775049482717e-02 6.9558014400553439e-02
      -5.5259113122369486e-03 -1.4627448401176616e-02
      2.9722972052855217e-02 3.1847696142394040e-04
      6.2789490058572733e-02 -1.4646237498082144e-02
      -2.6233276247171682e-02 3.4435369357384104e-03
      -5.5740605680543030e-02 -1.1434205314200500e-02
      -5.9097708255129470e-03 3.4454613271747474e-02
      -9.2214966457344165e-03 1.5299299055355159e-02
      -5.8568265475397764e-02 -6.4580992354758740e-02
      3.8105201236164996e-02 3.0185938673801427e-02
      -8.3430062274171518e-02 2.4482190635361518e-02
      -3.5897025123850193e-02 2.9920161510567769e-02
      2.6312861874218444e-02 3.0698601493660146e-02
      8.7745261931204029e-03 -1.5439249078749917e-02
      -3.8005552346167433e-02 -1.4031013661186826e-02
      -6.7544406022247427e-03 -2.7635587050235024e-02
      7.5682578263697550e-02 3.1769311136046273e-02
      4.4534357351660218e-02 -4.1682836819443769e-03
      -3.4546979572491199e-02 -3.2095557944115033e-02
      -5.7539663621756096e-02 -5.7130366408843711e-02
      -3.3007546618798025e-02 -4.0817733973581138e-03
      -3.9914009174329065e-02 2.7783868561421135e-02
      -2.7741917646541673e-03 -6.4837095319774550e-03
      3.0194414185012210e-02 4.5135861519136386e-02
      7.3952611598524454e-02 2.7847289353891615e-02
      -7.8944955051012580e-02 2.0660525728889524e-02
      5.2779030761440577e-03 5.1182274259396844e-02
      1.6959143070427826e-02 -1.3733628826053512e-02
      -3.7612752826493435e-02 1.3802440084128370e-02
      -7.1121476404139461e-02 -6.0048912732584723e-03
      3.5247272200483792e-02 -2.7316572086664870e-02
      -3.2725646202509506e-02 -6.3362830464937982e-03
      -2.0425026247461897e-02 1.3959065557459559e-02
      -4.6079942585160419e-02 -3.8242133085692562e-02
      2.6465007211874621e-02 -3.4036645109458294e-02
      -3.3078057900027033e-02 -3.4091255778081760e-02
      2.6095657658077896e-02 -3.6013292370595092e-02
      -3.2074960895715779e-02 -5.0200479298796771e-02
      5.2329985085744352e-03 -9.5577901343593050e-03
      -1.7933978862231442e-02 8.1366882702156636e-03
      1.7707020843130725e-02 -4.2704660179650467e-02
      2.5602213859591768e-02 -8.2226610849350304e-03
      4.7069950400334959e-02 -2.8354817637085448e-02
      -2.5775529782257719e-02 2.6575583307755921e-02
      -2.3878702831009881e-02 4.4644906214449699e-03
      1.6528301136284722e-02 4.7501685841765083e-02
      4.1615394017241771e-02 8.4112046919979557e-03
      7.0628053942989391e-03 -2.9173953019750929e-02
      1.9294815452436800e-02 1.2143724846183306e-02
      -2.6170723126074769e-02 -1.6232300659605456e-01
      -1.7137492918861605e-03 -1.5032276315702403e-01
      3.8565409049924657e-02 -2.5225203273870078e-02
      -7.7157315523525014e-03 2.1287303776151869e-02
      -5.6390685547391912e-02 -1.8315792677445163e-02
      6.0698518561501907e-02 6.8176092488007687e-03
      5.7953006364842567e-02 9.7757331106487714e-03
      -4.0188209469225744e-02 2.6376703425545251e-03
      5.4751638968164415e-02 -2.3911719222484418e-02
      1.5663134216426577e-02 -1.1421976648475511e-02
      -3.0583086516336441e-02 3.5882825329813764e-03
      2.0327507116654955e-02 6.9056239646879515e-03
      1.0045106794748260e-02 -4.0169296099517637e-02
      2.6408161193922267e-02 -9.0512810679114586e-04
      1.1847685055722663e-02 1.1833917495650360e-02
      5.1612758714824888e-02 -2.2619588701612996e-02
      -4.9181043493476968e-02 3.1307093785743555e-02
      -3.1065718808628725e-03 -1.3794235131452672e-02
      -1.1947968255123157e-02 5.2771682914423079e-02
      1.1031482684479305e-02 -3.0931465797325960e-02
      8.1399998905224563e-03 1.0710615968091489e-02
      4.0850552016417199e-02 -2.9469346926249487e-02
      -9.8535862462966178e-03 -1.0700414481694368e-03
      1.8992219982882530e-02 -6.3048434027949352e-02
      5.0358991712660658e-02 -2.6565590919515051e-02
      1.1683960439784331e-02 -2.5359459244298950e-02
      2.8555335789236063e-02 -3.9960690419351248e-02
      2.0686446764400797e-02 -6.8026517409806603e-03
      -1.1664212263813128e-02 1.3972613162199604e-02
      3.0998515439059557e-02 2.6008122238960461e-02
      5.6001234606374267e-02 2.3322155073484740e-02
      -7.8941887329359358e-03 -1.3280724083916319e-03
      2.3433471858523920e-03 2.1146752623764486e-02
      2.0621056478122141e-02 6.2026837149563819e-03
      -1.5255793640354105e-02 -2.2997041054823562e-02
      1.4406441992605455e-02 -1.7713547866168231e-02
      -2.6996287711531056e-04 -4.9089047797502193e-02
      -1.4452026596238897e-02 1.9434139339978857e-02
      2.2896048190681487e-02 4.7293402071706236e-02
      -6.2330033275115153e-02 2.7550835039316702e-02
      1.8212813526228645e-02 1.0777868249614854e-02
      2.8502580528720529e-02 -6.8467487282566533e-02
      -1.8760095026407558e-02 3.9076023201875337e-02
      -3.8448247712017734e-02 -2.1285396338506197e-02
      9.3787584214625533e-02 1.6411394121528550e-01
      1.8192673181026998e-02 -6.4363972668344385e-02
      -3.0353646229821975e-02 3.8075302562412816e-02
      1.5169218357154912e-01 -8.7561835152765527e-02
      -3.9485500466493316e-02 -3.2133926998745073e-02
      1.5245312134503888e-01 1.6963284618587132e-01
      -1.7828538676620743e-02 6.7386882093752798e-03
      2.1029674663992087e-01 8.5462805698372502e-02
      -1.0272169396717332e-01 -1.8517291415086463e-02
      2.5312135926699730e-01 1.6780887175056505e-01
      1.4896721536154497e-01 -6.4981809097179266e-02
      5.0766078378348930e-03 -1.1828651307615799e-01
      -2.1505819155407399e-01 -1.5302609698574957e-01
      -1.5560633650187364e-01 -2.3127207091051205e-02
      9.7783375502445508e-02 1.6643843036259147e-02
      -1.0012949853276877e-01 -6.8818629045807961e-02
      -1.1057751742212681e-03 -9.4590979775050696e-02
      -8.8593688839511325e-02 4.1649467812435503e-02
      -4.0393657018261135e-02 -7.2101384529170420e-02
      5.4552423162800262e-02 -1.9345433822069189e-02
      1.9895183247810116e-01 6.1450556505060289e-02
      8.5492286487101193e-02 -2.4590071516213768e-02
      -1.4732755805685516e-01 -2.4736105740295888e-02
      1.5569346261922498e-01 -1.2573117355203745e-01
      -1.0279577833288821e-01 1.5585742185681997e-02
      -4.8515998233092918e-02 -9.6978773284100317e-02
      -4.8613997533475978e-02 1.9826947731515146e-01
      -1.0261647156616500e-01 -1.0941591338428351e-01
      -1.5110543846547542e-03 -2.9124017881490410e-03
      1.3303822341886684e-01 -6.1732900464704581e-02
      -1.9896980767095587e-02 -2.1408630051082865e-02
      7.4761678958105579e-02 -5.4741351319280158e-02
      8.8584646543996559e-02 -8.4530958253119681e-02
      -1.2228906584129303e-02 -2.3536613154356862e-02
      1.4819215547114412e-01 5.1668633020232876e-02
      -1.3238194182350951e-01 -6.5561209636329609e-02
      1.6514182497014140e-01 -2.1513967846005999e-01
      2.4749653171551986e-01 -5.8962175251395639e-02
      1.3858510569493651e-01 2.1166448860526985e-01
      -1.0310338046522820e-01 4.8102948443449915e-02
      6.2896019986442370e-02 -2.2046932955661860e-01
      -1.0722622513545994e-01 1.7468372295692407e-02
      -4.8565999840111222e-02 1.0559127831071914e-01
      -1.6091868989597885e-01 -8.4469834645637759e-02
      -1.7607395130385026e-01 -1.3933076502068539e-02
      9.9138391482405372e-02 1.5364977803711027e-01
      -9.8897299583250678e-02 -3.6536439928837816e-02
      1.3655658400053949e-01 -8.1543523962102279e-02
      6.4263187929928162e-02 2.1315892566406539e-01
      -1.0619026725290337e-01 1.9528776325120378e-01
      9.3086063847562413e-03 8.2639925571804385e-03
      6.0680600977984142e-04 5.3241880445972833e-02
      1.8520959454365417e-02 -8.5292089948937107e-03
      1.7492785364359455e-03 -3.2211611630994651e-03
      -2.1721656256899213e-02 -1.2660271829889118e-02
      2.0574071962429722e-02 2.6843697055081866e-02
      -7.9756739912861946e-03 3.8912945653950357e-02
      -4.5305250644834975e-02 1.1346813024356933e-01
      -9.7686918194915401e-03 2.4684162438436102e-02
      -3.6524341806224644e-02 -1.4868572917007639e-03
      -8.3860788398682148e-03 1.7226466483799777e-02
      -2.3252298556239691e-02 -1.7040545864429511e-02
      -3.6801490773437431e-02 2.4331224535921871e-02
      -1.6660818376681166e-02 2.1211821344894844e-02
      1.8450557120116477e-04 -2.0048601117601893e-02
      1.7415697833184741e-02 2.9565203127941239e-02
      1.7739724685793999e-03 -1.1911243102244154e-02
      4.7407071305053554e-02 -4.7808913626030083e-02
      -1.3375503477729953e-02 1.6366149702498729e-02
      1.4910123730986519e-02 1.0125268696236140e-02
      2.0279253244529716e-02 -1.5509334185385954e-02
      -2.0077105589933922e-02 -6.6411463738556761e-03
      -2.4306808821329351e-02 2.0259470556019336e-02
      -2.5303025534376401e-02 -4.0540324229417252e-02
      -3.0462351462489396e-02 -8.5715072909617000e-03
      4.6964107778855166e-02 2.2938517150809253e-02
      -8.5424567391727685e-03 3.0095073478127118e-02
      -2.0917549002632371e-02 -1.9479827757929058e-02
      -2.1019882166495397e-02 -5.5205462537704598e-03
      -1.0052067268241426e-03 3.0792729534527219e-02
      3.2250525203132946e-03 3.7285661793718568e-02
      -1.9861459920408817e-03 -1.3135676799842228e-02
      2.2185406057004552e-02 1.5403874968609003e-02
      -1.4495805573774500e-03 -1.3856251988882816e-03
      1.3027370329267162e-02 2.1161702113091818e-02
      2.6986890350219103e-02 1.6635389607286166e-02
      -8.6295260726295314e-02 -4.5233231694393585e-03
      -3.5042518344692457e-02 -2.5849391962172709e-02
      -1.2423401717192212e-02 -1.4128324564576099e-02
      -3.8852575044226977e-02 -2.0664403732311327e-03
      -6.1738696659356723e-03 1.8937647365890268e-02
      6.1671358270356663e-03 -1.9990720461190117e-02
      9.5528088600210330e-03 1.7036348037334243e-02
      -2.5409279587330597e-02 1.1446147341542182e-02
      -1.4965849695145661e-02 -1.0975603619448659e-02
      1.4711639024410193e-02 9.2271441499216580e-03
      -1.0211153014789203e-02 8.3917352071818576e-03
      2.5203071068501365e-02 5.7947079242238360e-02
      -3.5255576195241202e-02 2.0293833245879789e-02
      4.7549836693848373e-02 7.4002965674598159e-03
      4.6053801748731076e-02 1.0407255187058326e-02
      2.2501402759699234e-03 -1.0350358283902045e-02
      -2.6157785839586858e-02 -3.3313402223510744e-02
      -7.5384334763554115e-03 -2.5773298361663179e-02
      -1.6484910722983984e-02 3.4747223481072738e-02
      9.4554919688565366e-03 6.7756983399016070e-03
      1.7213223375611448e-02 6.4130761056076263e-02
      -3.2287286900122482e-02 6.2468751627233345e-02
      -1.2690780866268962e-02 3.8282694470157634e-02
      1.1076564706319651e-03 4.6923983492463345e-03
      1.3601844056018483e-02 3.4080618328965813e-02
      -5.2738658844359639e-02 -3.3844344786178840e-03
      -4.2080032798994770e-02 2.2805748313398277e-02
      -6.1127756099037560e-03 2.3670168431699685e-02
      1.4083511507149045e-02 -3.0461189045309253e-02
      -3.1141732153176647e-02 4.1050806452585506e-02
      5.8678232890827485e-03 -7.3576960498626153e-03
      -1.0672040318300356e-02 -3.3513970072951024e-02
      -8.7752382581800011e-03 1.1209636768474968e-02
      -1.6206316618457423e-02 -1.6007478731611534e-02
      -1.1833366285358072e-02 -3.8243242730926684e-02
      7.4710265209828181e-03 1.9620557508000489e-02
      2.4634971702923486e-03 -2.4470697507438004e-02
      -2.2764086277987785e-02 -1.8004904391895407e-02
      -1.0526427651488637e-02 -4.7841581185911683e-02
      -3.4329507512725142e-02 1.5776375062854432e-02
      6.6741683369324102e-03 4.1626115815549649e-03
      -5.7738817426681924e-02 4.9826487339609475e-02
      7.6626352768020076e-03 1.2545911550500636e-02
      -3.4442972632074464e-02 2.3877808019196780e-02
      -1.7935618748767944e-02 6.0495852952792990e-03
      5.8879524612060856e-03 -2.8804269240772593e-02
      5.2183727780511597e-03 3.9706490156963779e-02
      -2.3749933648517813e-02 3.2741637673164799e-02
      2.5141895690910066e-02 5.4896197824696553e-03
      -3.9142726149239297e-02 -1.2467857198810188e-02
      -7.6823416882719611e-02 -4.1737205734666306e-02
      -3.4770009798836217e-02 2.8546771122134316e-03
      -8.2669803497285987e-03 -2.0940650401684148e-04
      -2.6940545473223068e-02 1.2685047559736770e-03
      -4.1497665125206119e-03 4.0167858708853050e-03
      1.0664958966670763e-02 1.8191324074817749e-03
      2.5085415175970620e-03 4.7204157499314239e-02
      -3.2128521680853867e-02 8.2687314119700931e-03
      -1.9538228027519144e-02 -2.7072053776671382e-02
      1.6313610305321465e-02 -2.3298591286742307e-02
      -8.6410725483332274e-03 -4.7370841908138716e-03
      5.1893631019754658e-04 6.3831708026536468e-02
      1.1233857171528845e-02 3.2829550831212126e-02
      1.6860228854063918e-02 3.1301478780607808e-02
      2.1034884363375268e-02 -1.5684551917836295e-02
      -2.9658037424005062e-02 -2.6582890791717211e-02
      -1.1222621811300078e-02 -4.6721883921988019e-02
      -3.8405441966762287e-02 -1.4443773390731291e-02
      -2.0274440034333287e-02 1.6713016533758653e-02
      1.2608302069289487e-02 -4.4422750828515635e-02
      5.5564917005260844e-03 3.6960073434785475e-02
      -1.7807177206680155e-04 9.4614433281791449e-02
      -1.2825204449653784e-02 3.7167343926679586e-02
      1.9334998005530281e-03 -2.2378739830455361e-03
      9.2050848943953500e-03 1.2553612471856251e-02
      -3.6295952414924497e-02 -4.9502225787456900e-03
      -6.6666750087608154e-02 -7.6982155693782514e-02
      2.9806705470142913e-02 3.6500055720078334e-02
      3.3246672189929365e-03 5.6589874331548784e-04
      6.7647687279354827e-03 7.3600011245259630e-03
      -1.1146603362150072e-02 -1.7017664016268596e-02
      -1.5546575235657016e-02 1.2045721223670345e-02
      -1.5841338406039754e-02 2.4305128925156690e-02
      -1.7108953479861681e-02 2.8796312426124387e-02
      1.8100811451463542e-02 -8.6300141237386167e-03
      -3.6272707933203620e-02 3.0581033829014874e-03
      6.1179210919882305e-03 -9.7146479535249221e-03
      -1.7035337577633888e-04 2.7310675517817788e-02
      -2.4720181569730444e-02 -1.8567180982502211e-02
      6.3884595272377352e-03 1.8717545746753945e-03
      9.3627053441963995e-03 -1.7134038931170922e-02
      -9.9695230716716852e-03 3.4684983376500108e-03
      -3.8867286563479993e-03 2.6067279228551989e-02
      -1.6142565732404399e-02 -1.0498374912337211e-02
      -2.3409367489184993e-03 6.2953142115752319e-03
      -4.3263790817145341e-02 -6.9462438876762176e-03
      -2.5107004870916654e-02 4.8506538639661742e-02
      2.1623193945284711e-02 -2.2476801084670008e-02
      -3.3529421681436210e-02 1.1234840095310663e-02
      2.4110832888073054e-03 9.5465586601487240e-03
      4.4733262489592569e-04 8.8045555496086766e-03
      1.5033101931482036e-02 1.9846082478914142e-02
      -5.1640979688442100e-03 -1.5505444273572538e-02
      -3.6138220817228464e-02 -4.3705933237604385e-03
      2.0694731601676373e-02 1.3865766327878629e-02
      3.2127494075990092e-03 3.8649265875873452e-02
      1.9469541546801975e-02 -9.3809775036320046e-03
      2.4900583690372746e-02 5.4503390311224616e-03
      -4.1884812878569934e-03 -1.2292151937993158e-02
      3.0925224073900363e-02 -2.5680738277179021e-02
      -2.5251879825132592e-02 1.9211405041487790e-02
      2.1532086061836118e-03 1.7409229391080434e-02
      -1.0370994124504408e-02 -2.3806505377768385e-02
      4.4785519846863792e-03 -2.4592530396498002e-02
      2.2314870942466919e-03 2.8674206297466479e-02
      1.4057141954832276e-02 5.0090483717275945e-02
      -3.2991778166308675e-02 6.5209516349596149e-03
      1.1890930874657583e-02 2.1952050364345280e-02
      -3.0026415044567694e-02 1.9510441544340854e-02
      -7.6248355203821214e-02 -1.2237174310682755e-03
      5.6112678079772507e-02 1.5619718950050869e-02
      -2.7625840862998154e-02 -8.9108868800507210e-02
      -1.0295755046892960e-02 -8.6255147021078137e-03
      -2.4611661317776635e-02 -4.0107065166094295e-02
      -9.5418986320559077e-03 -2.0191275671077634e-03
      -1.4909954295293501e-02 1.9782925391902215e-03
      4.7329472088189578e-02 3.2648368010451213e-02
      -1.7582696503597318e-02 5.8077810436500579e-02
      1.8985092024669629e-02 -1.5470255443279627e-02
      -3.2799676685414836e-02 -5.4078998624747547e-03
      6.2543247005099445e-02 2.7190572602295075e-02
      -3.8857223050529743e-02 -8.3116953040708649e-03
      -2.6662107762492272e-02 2.0037301158906177e-02
      4.6008662379110749e-02 5.7281470135882306e-03
      -5.4680925333060902e-03 -8.5715838337053780e-03
      -3.1007411974247372e-02 -7.3465989551533264e-03
      -3.4050489648352070e-02 -1.8466259285452546e-02
      4.1402045021559732e-02 -1.1952310208888397e-02
      1.0872696460754352e-02 -2.5142570903351369e-02
      1.2650628037221364e-02 -1.6310792378179093e-02
      -2.5740116298656041e-02 -4.6312380950920211e-02
      -3.8388833333320320e-02 2.1106949919723457e-02
      -2.7643317022965873e-02 1.0604852557184880e-02
      -1.1783738812268503e-02 -9.7153911294559948e-03
      2.4598619449118904e-02 5.3240060919522277e-02
      5.4112326691689389e-02 2.7149177494555077e-02
      -5.1167336468854574e-02 5.5508135143072790e-02
      1.7590919091146358e-02 2.4348269296367700e-02
      -1.4351113558418501e-03 -1.5297045078240017e-02
      3.1192506159008217e-03 4.1532614230975484e-03
      -1.1919310874996522e-01 2.6656483810577575e-02
      -3.1832849617165419e-02 -4.2107166099486011e-02
      -6.6773594395820896e-02 -6.4559664913780099e-03
      -1.3281890300272691e-02 -1.3909753165677578e-02
      -6.0795179440408478e-02 6.1945667205363401e-03
      1.0507257861068677e-02 -4.0196622040222472e-02
      -3.1277428977356088e-02 -2.4948336211957498e-02
      2.0975030167868218e-02 1.7968960123824231e-03
      -1.7796511909509559e-02 1.5021577769808630e-02
      -1.0210084639635656e-02 -2.4147450837623357e-02
      -3.9430679323177606e-02 -1.4340781359596412e-02
      2.1949168361975448e-02 2.0057850996946569e-02
      -8.2456359983499178e-03 -1.0973374970319031e-02
      7.0800303653682145e-02 -2.3727706710326903e-02
      3.3391662393515938e-02 -5.6190392218579922e-03
      -3.2879492794835055e-02 3.2959138162450087e-02
      -3.1502871858949406e-02 4.1937166877464939e-02
      2.6706978882584574e-02 -5.3292048065013767e-02
      -3.6233648126426932e-02 3.0667496775542273e-03
      1.5962865049105209e-03 -1.7964163126931206e-03
      -1.8360981933811495e-02 -3.7645233395889370e-02
      -2.2050069337001599e-02 -7.3039270458034973e-03
      1.3509795017020402e-02 -2.3461891847091156e-02
      1.0880648379413337e-02 -4.0124767113359293e-02
      -3.0205245792484167e-02 1.8390089662296209e-02
      -4.2531806930060138e-02 -1.3369047539549993e-02
      7.4972295723738841e-02 2.1721934788489855e-02
      -2.2979757646035482e-02 2.8710214810079723e-02
      4.1192431155390376e-02 -4.4863737344714556e-02
      -1.2134070984182118e-02 1.5885547477849930e-02
      -2.3140481848123631e-04 -2.3112813177203175e-02
      2.0606998296404191e-02 -2.5687470421398292e-02
      -3.1138286756339111e-02 -2.8306697680060527e-02
      3.1958619912390497e-02 -1.3269451823433095e-03
      5.7119404294225630e-03 -1.4697896500168546e-02
      2.2147613925838281e-02 2.4020525455786105e-03
      -6.6118859208250447e-02 -4.9397172596229062e-03
      1.1352046231781276e-02 -5.5552559332817129e-02
      -8.5511786737984142e-04 1.4272528381417193e-02
      4.4215142002693920e-02 -3.7037880161785587e-02
      -2.6186597463399065e-02 -6.6806096079075148e-03
      6.7199892814431899e-03 -3.4955776551627946e-02
      -1.7357732765734525e-02 7.6824267952870498e-03
      -1.7344904301689168e-02 1.2013660583554981e-02
      4.5738299529921008e-03 1.3420887007984503e-02
      -3.2974522255295707e-02 -3.3693941586147441e-02
      -1.1339614753836880e-02 -2.9547694454587855e-04
      -1.1518442617586956e-02 1.4400418181968095e-02
      3.5064532293694957e-03 2.1006722129616240e-02
      2.1038317759085393e-02 2.3883228218358693e-03
      -1.1956953596137901e-02 2.2666189185961944e-02
      -8.1811712879643096e-03 1.2079395342237191e-02
      1.4073772512482860e-02 2.1587325772156135e-02
      -3.1502615222485479e-02 -2.6980727953573518e-02
      -2.4391377867612408e-02 4.1809748588438597e-02
      8.7968621032292864e-04 -1.3485438707378592e-02
      3.8361662516930403e-03 -2.2165171566193801e-02
      3.3407477680254274e-03 4.3893681444402170e-03
      -3.0911604524887250e-02 2.4988449007944377e-02
      -2.0342205533973624e-02 -3.9860698789643892e-02
      8.8642018407660388e-03 1.1187755462690522e-02
      5.9914031023851413e-02 1.5554170409497270e-02
      -3.0855002395273907e-02 2.0152457293508019e-02
      1.8891928935428876e-02 1.5686316586470440e-02
      -4.5221620417878874e-02 -3.5433820704702537e-02
      9.4070227655613341e-03 1.3093767693933245e-02
      2.2705531002218276e-03 9.6126661401971999e-03
      1.4600253119921781e-02 5.7233795110289386e-02
      3.5522654768459297e-02 -1.3730902054511397e-02
      -4.5697980559785481e-02 -5.2230133402475384e-02
      2.6269389794572842e-02 1.3819461881959809e-02
      -4.1837222314868597e-02 -7.5265903960170008e-02
      2.0035904714903682e-02 -4.0588552924206371e-02
      -6.5982348769980742e-02 -5.5151594127478255e-02
      7.7112114540199379e-03 -2.3173654530441436e-02
      4.7465268756624469e-02 4.3282147440240712e-02
      4.8078973231384756e-02 5.3059110988866428e-03
      4.3576777313462767e-02 8.3318176436041561e-03
      3.1955685068078096e-02 -1.3072370050851377e-02
      2.5079195633940114e-02 -2.8496144335632663e-03
      3.1894518035179530e-03 1.4653345316349936e-02
      1.9072547786120001e-02 -1.4512703547706443e-02
      -8.2704016203927182e-03 -1.5956906233603015e-02
      1.9727190150229817e-02 -3.8391331306018475e-02
      -2.9504346876150635e-02 2.9216719576368086e-03
      -1.2683293950628447e-02 -5.8383183544154470e-03
      6.2132743630153022e-03 9.7250504106712200e-03
      -8.4301452802474004e-04 1.1540963322655778e-02
      7.1542116534782291e-02 6.6841547687171974e-05
      -8.9949605029847318e-03 -3.2576795611982803e-02
      1.7017892741629955e-02 -5.3388497067152201e-02
      1.6640342672869981e-02 5.6216800759902623e-03
      -4.6478243946885024e-03 8.1439710603718411e-03
      1.1503182055908445e-02 -7.3589633844137097e-03
      2.3236769907346019e-02 1.2141183076855746e-02
      2.9835419861160891e-02 3.7779466647132429e-02
      -1.6984095385465314e-02 7.3947353101122973e-03
      7.7293140765830274e-03 1.4501844249080150e-02
      -5.6778301117046050e-02 -1.5249620735273901e-02
      4.5299699271532816e-02 1.3788512276751855e-02
      -3.3448736759954488e-02 5.2210601516797635e-02
      -8.2288357635069295e-02 -8.8213230786386761e-03
      -4.6497528002852631e-02 -2.0780822421239742e-02
      2.4443997305775931e-02 1.0109570530440730e-02
      -6.2722248246478415e-02 3.4301413771014380e-02
      7.3326875338059677e-02 -4.1963755990460774e-02
      2.7959656606075939e-03 -4.7869504971166793e-02
      2.9639136121854759e-02 5.6358171126489269e-02
      5.5221004540010381e-02 2.7299554729586450e-02
      -6.0561267171895507e-02 -1.4057111715774097e-02
      5.3298427940922578e-02 -1.9482941000795347e-02
      -8.8082998158839961e-03 1.6608050087621718e-02
      -4.4021276187920566e-02 -5.7644834073429005e-02
      5.9666895167654541e-02 -5.9760220696488488e-02
      -2.0505106797666605e-02 -1.3038009525238732e-02
      -1.0110656564475318e-02 -1.0953480922003182e-02
      6.4139465291050100e-03 2.9657665742443204e-02
      -7.9437864728364727e-03 3.2728942792806325e-02
      8.4721786285398924e-03 -1.4691033208287643e-02
      7.6690298527537469e-03 -1.2607237239253700e-02
      -1.5564596533683469e-02 -7.6442801087419909e-02
      4.5105627336878541e-02 -8.1184753395368764e-02
      -4.7077009971352186e-04 -3.2360625150460370e-02
      -1.0356446802480655e-02 1.3021677232065701e-02
      -5.0048507763401405e-03 -1.3376306633435853e-02
      2.8655671921617068e-02 -6.4315841898294661e-03
      -3.7392495513822427e-02 -1.8867305648123105e-02
      1.2131641918021812e-02 -8.4330727742995010e-03
      -7.2043207173139591e-04 1.3992071977849525e-02
      7.8346806430581800e-04 -2.7630841240726539e-03
      4.3146140487931852e-03 1.5511430672357878e-04
      -2.2901292812412256e-02 2.4010941477544023e-02
      -6.3489671653458105e-03 -1.0450490932529862e-02
      1.8099010335157727e-02 1.7699480219021790e-02
      1.2029564199800198e-02 3.0685539229619238e-03
      2.0457310347232371e-02 6.8061514127850118e-03
      -2.0522717528519877e-02 1.1804035274422680e-02
      3.0012242817397027e-02 2.4264229271479459e-02
      -4.3150000884564967e-03 2.2626815364947983e-02
      1.9602570919013972e-02 -2.3795668025476766e-02
      5.9851647489637758e-03 -1.4431059341440075e-02
      1.6288066271678801e-02 -3.4061132301740786e-02
      5.6696136716419083e-03 -1.5629927166495223e-03
      3.5501455297830900e-02 -2.7228175220571929e-02
      1.8351726506051800e-02 -1.9903629630082156e-02
      4.4082721708846570e-02 -6.0914040893622337e-03
      -2.1630944736536508e-02 -3.3113099643741102e-02
      1.9360962127523439e-02 -1.1087775501151954e-02
      -1.9624397198020806e-02 -2.5086525351642752e-02
      1.8184590873110886e-02 -6.4131979233632173e-03
      1.3419808105393616e-01 1.2219930543418094e-02
      2.4410380921672040e-03 6.0359742702781388e-03
      -1.1753368223016349e-02 7.6067783141100407e-03
      -1.1855260162934253e-03 -5.2415668179024641e-03
      5.8596323181202932e-03 -3.5901155383875068e-02
      -4.4198352126430026e-03 1.7262612698637835e-02
      4.1294265775840434e-03 -1.5343065561042025e-02
      -4.4792796228369089e-03 -1.9541099872455357e-02
      -1.0016904283199774e-02 -5.3834782905030319e-03
      -4.9463056707910198e-03 2.2397952579691488e-02
      -2.0819590208241045e-02 -2.0220961753110479e-03
      -1.2120119576472445e-02 -5.3768560891354358e-02
      -2.1460070050284098e-02 -1.3130313899434505e-02
      -3.3155755905299157e-02 -2.0347047912097269e-02
      -1.8875725975318499e-02 7.5134776663266775e-02
      3.7153153693165811e-02 1.1685464534210951e-02
      1.5934980185247042e-03 4.8316119177722931e-02
      1.7287329955612440e-02 6.1047731813287535e-02
      -3.1678116325203984e-03 -1.2816002495035827e-02
      -4.4789248276719942e-02 6.7389954958302883e-02
      8.4237914210419082e-02 1.3373345941035519e-01
      9.1132428587693243e-02 6.0073538470005683e-02
      -2.3781276397598992e-02 -3.5401400315624380e-02
      5.7450531866849661e-02 4.9611296022205695e-02
      1.8789491728769428e-01 -5.8732510808010216e-02
      3.1672282793151992e-02 1.5490607595031214e-02
      -1.1215158427392417e-01 -3.2980341970469201e-02
      -6.7862256996882753e-02 -3.9398299315845965e-02
      2.4893856840643706e-02 6.6774144142018085e-02
      -6.1925984883587519e-02 -9.5131728065709284e-02
      8.6875720447456076e-02 -1.9230497062836225e-02
      -4.9328730001240689e-02 5.1494822938831487e-02
      -6.1736584613406108e-02 -6.4587306525819857e-02
      3.2160249430601077e-02 -3.0754020469760616e-03
      1.2594013230759479e-01 5.3323096651773212e-02
      -3.1967474767870666e-02 -3.3930013919373947e-02
      -3.6572051526617452e-02 5.3237283578634234e-02
      1.4769726401854341e-01 2.6085839785893558e-02
      -1.1057572024502783e-02 -1.3499354421351212e-02
      -2.6171324827574394e-02 -4.2943898530767785e-02
      -8.0993310287247572e-02 4.9712149529500510e-02
      2.6383729536953804e-03 -3.8442407035922811e-02
      -7.6165461419320735e-02 5.0456646169859138e-03
      1.0792425798237616e-01 -8.7910985230415142e-02
      4.3262218348571489e-02 2.6542674034078912e-02
      5.4549657391808191e-02 8.4474547493571417e-02
      -1.1337977852524354e-02 -9.1770679072725236e-02
      1.3564732428800583e-02 -2.5848760465961539e-02
      7.5777067969952511e-02 -2.6987019036478203e-02
      -3.4028695461362217e-02 3.6013012872400385e-02
      -1.0748202255391699e-01 -3.7546326475782488e-02
      1.0158538585040450e-01 -5.5271337339848903e-02
